,-5,-4,-3,-2,-1,0,1,2,3,4,5
cm,0.462634488295975,0.611715396929954,0.7648711970376252,0.15150756661017514,-0.0023676621131254612,-0.01348264240767824,0.07477707769477412,0.17812449750692044,0.7710556663767475,0.5853308200838613,0.36410884671854843
cs,0.13131878029685823,0.4355189434967467,0.048677653694502644,0.23721350377921332,0.25119087733283424,0.09699040046424205,0.23738532570798518,0.21620477640737853,-0.042568386285138246,0.4285144056232239,0.20303386508488816
cx,-0.4199817597306788,-0.40827699064693035,-1.0108395510573516,-0.6759057827319914,-0.48672261776259207,-0.12500732913763088,-0.5141397644943888,-0.6850913477519983,-1.0515680972224186,-0.4652640509134409,-0.3750598713306449
fBB,0.006193128458205796,-0.02484305027840383,-0.24144702812105145,-0.1752611345227316,-0.1213966260220067,-0.04937766379657286,-0.23078078856807158,-0.25995036844746966,-0.34876860465564924,-0.07226869488191723,-0.39415197210272296
fBK,0.11255055244894946,0.5174582456297271,0.636411675024434,0.34428113187964643,0.2116286690802158,0.055870612230654974,0.2520695721481922,0.41903325401843594,0.7338974280642178,0.5108613676971093,0.010548343397512693
fBN,-0.17542220715777798,-0.38103162673202845,-0.4173738264831072,-0.24112895027483414,-0.15933299597696896,-0.04865581665127848,-0.19535321073315162,-0.2230226628780878,-0.46619123773787075,-0.4203470742979131,-0.21426723661036934
fBP,-0.18782808624585928,-0.4971352673542046,-0.5153726008999882,-0.2919256666059457,-0.16859536825488056,-0.020275735854250285,-0.18584558575521656,-0.28549887238903765,-0.5811190478895647,-0.5938178092983843,-0.20027485146333657
fBQ,-0.07148950363081483,-0.1892775889713571,-0.25984265890210356,-0.13500245862786853,-0.04973927603531995,-0.010757074073790679,-0.11674855585477288,-0.2289687331508402,-0.32792895786723697,-0.23656799117779556,-0.22533608716288805
fBR,0.15180249315981506,-0.28483181589358936,-0.39859996720737956,-0.13944263346617655,-0.045739500644552976,-0.018405073010705656,-0.06819925718036278,-0.13559981927691037,-0.35439505130693727,-0.3312432247480338,0.07842832502843375
fBk,0.10690619700363771,0.41730944030519096,0.48517936615938906,0.37106722238934337,0.1809320627851985,0.029645293030155777,0.2385716288524509,0.3735397650122335,0.5538707713785996,0.47161828650310195,0.10308784680532597
fBn,-0.019685629952402837,-0.022543776188363344,-0.03297020955547943,-0.05100306047968087,-0.03268204227136219,-0.014528890167143685,-0.04996820997559824,-0.05289899970231866,-0.059717466150140175,0.024669989571675828,-0.015178573904751668
fBp,0.00961651293404905,-0.0029503298406735315,0.05097248401899162,0.03390650976410427,-0.01943653405452689,-0.026730261430347645,-0.024568492989024412,-0.0019959375299224012,0.06100075570171535,-0.016982384238166844,0.0661539974042676
fBq,0.07493399944796168,0.3360712522982833,0.3479659936293278,0.18485555119555266,0.13913764049465022,0.03682525724753167,0.14319214055417379,0.23445064267241508,0.3777887059881427,0.3658954835666697,0.23398358524918103
fBr,0.2443511661074106,0.2672159705903907,0.22334797371515663,0.03979755883035654,0.023012805557615593,-0.010289628571664586,0.015619342590452265,0.037024195169676255,0.18594488024437317,0.11739187237514452,0.14304307421352763
fKB,0.11254980012384289,0.5174582480921427,0.63641170727147,0.344280799569823,0.21162842578519603,0.05587434111866584,0.2520659874163212,0.41903315322496515,0.7338974703851432,0.510861367192735,0.010548439428475484
fKK,-0.04947660043614311,0.11514850283642768,0.3913163754191747,0.17860241463308732,0.05640718016457654,0.06452326362451115,0.08124263487130144,0.15159959112491891,0.3409610789600447,0.16461969263789406,0.03189676420651461
fKN,0.024315913095358983,0.6283160608335124,0.6882128724578377,0.3712488727033202,0.16743542964787256,0.0200148140159797,0.22096366336253354,0.3880441650453383,0.6347116219949757,0.6467012321853014,0.07531603475040387
fKP,-0.031162279284206982,0.5204196981474289,0.8263376456306218,0.4988764968271311,0.3016647590663316,-0.0011519965829547788,0.3389541386421106,0.44250748703506443,0.7947099767608816,0.5343732698404963,-0.002018417960473213
fKQ,0.5156876088603092,0.3546062057673259,0.5378884107984311,0.28988788324898485,0.11832505876379662,0.012159649176553294,0.15248028617627774,0.31772632568892006,0.5561489765873939,0.32027668663864234,0.4316254302847037
fKR,0.08484313669052516,0.41045717610055005,0.6491025916126126,0.3371789497587882,0.17943503245642276,0.05058625576867704,0.21340909780347025,0.35946750902473334,0.6666198740460662,0.44553931080076226,0.07990638753909977
fKb,-0.10691013746680955,-0.417309440516206,-0.4851793637025434,-0.37106722146852217,-0.1809319559468574,-0.02964535677832144,-0.23857158417757227,-0.37353969562967787,-0.553870773503064,-0.4716182866147234,-0.10308932223747952
fKn,-0.1544390255974968,-0.3455470145215449,-0.3698190609846518,-0.37888567201539375,-0.22836571955808954,-0.08623410201661473,-0.23967436494140887,-0.37344042748734574,-0.35741700645861085,-0.3542194989028989,-0.2754077101589159
fKp,-0.2416120223744574,-0.6853794137036288,-1.0757679900518082,-0.5510411157191231,-0.2462806098266007,0.029852805393543038,-0.300000416659012,-0.5046465306600102,-1.0075616080862853,-0.5927660006577085,-0.23717342316038145
fKq,-0.15686172875435866,-0.8977731550516667,-1.414349781372846,-0.8693429276200271,-0.5687480315153907,-0.1780588935554922,-0.6812186237373218,-1.0393529491335227,-1.4584316941455242,-0.936254246083388,0.01423796490570351
fKr,-0.21611859388660265,-0.6282859284773432,-0.8491430590105913,-0.33457253830882977,-0.16821980073551396,0.010971858330227789,-0.2003218643073323,-0.36423696174781445,-0.8280085471694327,-0.5028031789100952,-0.17525487479748875
fNB,-0.17542371361434997,-0.381031626474205,-0.41737383401992323,-0.24112895100284726,-0.1593316608711391,-0.04862402735431645,-0.19534529245781393,-0.2230222458827191,-0.46619120697321476,-0.42034707446466213,-0.21426480084131438
fNK,0.0243155861814898,0.6283160607699748,0.688212874643284,0.3712488534288145,0.16743546647187066,0.02002061899304079,0.2209641804157397,0.38804410748251716,0.634711620619599,0.6467012321618585,0.07531551738195866
fNN,-0.1855678884438905,0.09441978728800567,-0.1991740567829416,-0.12663827120630036,-0.12314598120211294,-0.04604722250580843,-0.13389020252362166,-0.13449929088859588,-0.20798888303246407,0.094196547136928,0.0028531388457393374
fNP,-0.1705727939691548,-0.41936832099236715,-0.4105716204938017,-0.28053006266504804,-0.16380320747836083,-0.008548236117614337,-0.15933374945375942,-0.2518192241270147,-0.35969145628729354,-0.33125247651642953,-0.17680927675225638
fNQ,-0.028131511182671737,-0.25477092768078785,-0.30120395755561974,-0.1516544736740398,-0.05910774034058812,-0.016636002421589476,-0.086594365257325,-0.18105506117565257,-0.29152972102541275,-0.2050924014349408,-0.14031063433250457
fNR,0.015872889680972724,-0.3543881896949241,-0.35185090815305375,-0.18603854901130196,-0.07913281988426485,-0.024902201792729648,-0.10504396229507938,-0.1945444542146136,-0.4014033249162265,-0.3769245364400612,-0.06023324914166384
fNb,0.019685647862918737,0.02254377608243585,0.032970178690213243,0.051004616912341656,0.032681081899519245,0.014531174495289099,0.04995473086337416,0.05289786674400154,0.0597174769232564,-0.024669989290526072,0.01517849947132273
fNk,0.15443919860211383,0.3455470145217274,0.3698190608276847,0.3788856722293791,0.22836572084837883,0.08623410077980904,0.2396743719028355,0.3734404257418899,0.3574170065653242,0.3542194989065125,0.2754073759056305
fNp,0.04897475786458941,0.012996496813990463,0.07284531599229371,0.030367047006865475,-0.016905679074816132,-0.0499922711348252,0.003475440907995622,0.01322025326928877,0.1071038955773655,-0.06250006280871913,0.005291951788646847
fNq,0.07016540030207764,0.23169350680681391,0.27131111855642936,0.12140830968153252,0.08442505872975542,0.028037974836357015,0.12087878628213246,0.18275292756513334,0.3498261179621553,0.2598836766501303,0.3007721711437619
fNr,0.10916554885524306,0.18430741298189243,0.18515415136692506,0.023253221224462252,0.03651482830424445,0.025411615700356945,0.027641908131813386,0.087543346671668,0.24123489353737912,0.16745543974811486,0.18054033142581685
fPB,-0.18977816881041645,-0.4971366228570751,-0.5153859535935272,-0.2920459327226728,-0.16903529121204014,-0.020288970749694983,-0.1843852315286416,-0.2851380828158598,-0.5811040397910189,-0.593817017781792,-0.19837785171558958
fPK,-0.03115535220652375,0.5204195882721793,0.8263358428679809,0.4988669148837975,0.30165342407824486,-0.0011522081507435906,0.33893920605411687,0.44250112724121166,0.7947072763353346,0.53437313225605,-0.0020284351845872364
fPN,-0.1688762987823831,-0.4193671628013647,-0.4105605671539875,-0.2804173814238323,-0.16333483212528443,-0.008634213453460321,-0.16020787296736777,-0.2520906228167169,-0.35970678211174695,-0.3312532661738661,-0.1782750101148671
fPP,0.01749448876208098,-6.492484875110852e-07,-0.15874543032602753,0.08011981082864673,0.17508557556401325,0.054608593341122065,0.018722857984916137,0.0005548245080268127,-0.3856084470367088,0.019999183719883327,0.1162002290507391
fPQ,-0.06086564024005867,-0.32253155032987024,-0.450625869039493,-0.2642816979163146,-0.17585806402540155,-0.033570067640520354,-0.18245239273335,-0.27512639129106725,-0.45386131275083497,-0.35917200069319144,-0.12632957903212755
fPR,0.17335473706688795,-0.20248103583504726,-0.4524903715201833,-0.2087966090468753,-0.14025387485101057,-0.02865008918761212,-0.1777841145327091,-0.2384993045117537,-0.41248675418740904,-0.261857631304807,0.06288789337241385
fPb,-0.006855105386294932,0.0029705247055857964,-0.050860846266733116,-0.03281498394208211,0.022840725910631177,0.028129710448964874,0.015902711783692583,-0.00014243616110497646,-0.06116643407158114,0.016971101438318287,-0.06853903117883252
fPk,0.2411119924845756,0.6853790770903815,1.0757577038966626,0.5509694043232377,0.24622248372900724,-0.029857086761646084,0.30002061745613345,0.5046446086292347,1.0075502934903542,0.5927657957877438,0.23739864394672947
fPn,-0.04900082512043796,-0.012996528722000843,-0.07284553870397778,-0.03037206358339943,0.01685301452228367,0.04936241113443861,-0.003376038298475368,-0.01318908941194474,-0.10710184333736655,0.06250010174480287,-0.005252457716194306
fPq,0.09815315633957196,0.11827280795831036,0.22495748976107624,0.14034594219664767,0.09424031006406214,0.05207452243787371,0.11080148784202669,0.16116148285104823,0.222265680827335,0.1481897067025326,0.20887681826813598
fPr,0.09404948266108674,0.25999222565525826,0.32237165753718466,0.08678992550800782,0.06467671104183141,0.0010145783306761257,0.03160512026537421,0.05175432252021439,0.26886726220835727,0.3284971089261931,0.10699520433103431
fQB,-0.10976825793575977,-0.189295111619817,-0.2599033169849349,-0.13540387039325855,-0.05117633204949924,-0.009887254007988249,-0.11249530419140746,-0.2278720892479074,-0.3278083992612179,-0.23653097463376882,-0.1859695729884523
fQK,0.5533006410436074,0.35462978196357275,0.5379112169217172,0.29008370330490696,0.11860675894894099,0.012113532936708086,0.15180235459525587,0.31739645119038806,0.5560797330545789,0.32024146799486297,0.3880329250505917
fQN,-0.0303339628490767,-0.25477214419815447,-0.3012106461016851,-0.15172778759893168,-0.05928146400188547,-0.01679013758256937,-0.08605475377481497,-0.18086739656205114,-0.2915004523155523,-0.20508996410972244,-0.13760778746720087
fQP,-0.024831906640623933,-0.32239205358427137,-0.4502264295851358,-0.26314686067652104,-0.17404953011381835,-0.02680729020858968,-0.18252143411867894,-0.2752695394542391,-0.4534937768034921,-0.35905533777357673,-0.16002695044254572
fQQ,0.14686515823777133,0.07119901369125646,-0.03325915366286785,-0.15636632900769684,-0.14169738693297926,-0.033634663132767126,-0.18842086545057066,-0.16534822619615425,-0.10930932056742311,0.07219949464390668,-0.08894982095032915
fQR,-0.1270838166472106,0.0894512656145564,-0.002470653521218069,-0.009693733541901093,0.0007123324248432135,0.00026967820720748606,0.005953366087158776,-0.04032839393187197,0.04138189835574179,0.20195927979114323,-0.016037890065288368
fQb,-0.07419267443308118,-0.33607133580986587,-0.34795083563155593,-0.1846812225817488,-0.13865360796102086,-0.03718300986904807,-0.14385501382665503,-0.23472499936491106,-0.3778256867018337,-0.36590256584369224,-0.2350941172328881
fQk,0.15451677812299133,0.8977134947412283,1.4142915311158155,0.8692893390466132,0.5687133892105387,0.17800431575587036,0.6811861434204957,1.0392932849942826,1.4583862596425627,0.9361953271151098,-0.010932686358886352
fQn,-0.0698135712844557,-0.2316919357602868,-0.2712979428870803,-0.12130821504171661,-0.08406897330027913,-0.027546668529438465,-0.12122175315515507,-0.18289802776610184,-0.3498361137456044,-0.25988492928136164,-0.3012145996536754
fQp,-0.10131270749579434,-0.11827457739703016,-0.22494941460368473,-0.14052175238909378,-0.09465268333469358,-0.05126645684485627,-0.1095639603599176,-0.16026851268729625,-0.22212840924384814,-0.14815223704474634,-0.20233433687111751
fQr,0.1975462731954897,-0.040087802776492,-0.15719826983310164,-0.10705136071940045,-0.07713666524455455,-0.05488044642714765,-0.11775049931469218,-0.11166421817071633,-0.09652047992182172,-0.03338827608714538,0.13387697430818965
fRB,0.13941536045865383,-0.284869409260046,-0.3986737903795598,-0.13985284914859783,-0.04647118579758771,-0.018363803601287535,-0.06705959435093163,-0.1348200677079078,-0.3542692855958611,-0.33123369849346757,0.085905269120317
fRK,0.09355635513293534,0.41047214831335355,0.6491731235916168,0.3374453187878805,0.17986003249069962,0.050488558312245024,0.21263786136484136,0.3585988810684093,0.6657891448710223,0.44548677527611075,0.07288090174032655
fRN,0.012977863359509826,-0.35439199564519,-0.35187982632448955,-0.18617896169947415,-0.07961505393453998,-0.025102469575366396,-0.10413306701704823,-0.19415419464642356,-0.4013616463087245,-0.37691882929091763,-0.05654083196994262
fRP,0.19716986597864983,-0.20246837512933494,-0.45237448836790356,-0.20795519221493777,-0.13920013937477008,-0.029039525622092686,-0.18010252112291944,-0.24010093244337122,-0.4127734245755091,-0.2619238816222609,0.043042358247298226
fRQ,0.024308833744766452,0.08957508733881456,-0.0016395005124873376,-0.00814395481822559,0.0034063282207119037,-0.001958513118391427,-7.076770716124689e-05,-0.04337954880290705,0.04063014623673404,0.20149497431743854,-0.16635940179839825
fRR,-0.13595992683014504,-0.017662253685483076,-0.1678849410146277,-0.20896333744310253,-0.17153871023868048,-0.013559512753838838,-0.13691947525203851,-0.15005369046969566,-0.11561325261573249,0.054580664194318756,0.18285303072152517
fRb,-0.24446844228736178,-0.26721757369000054,-0.22333155992629225,-0.03980770578336712,-0.02299693026625327,0.010358816416208857,-0.015442818576732553,-0.036831568004994555,-0.1859027069692803,-0.1173828007398466,-0.14285191220375965
fRk,0.21406435167176197,0.6282721012168901,0.8488532316528888,0.3345792965567403,0.16823354447698496,-0.010984434108128032,0.20023706465723734,0.36394475915806973,0.827315994389048,0.5027523474804362,0.1699415639877777
fRn,-0.10880114972446102,-0.18430696116366602,-0.18514787024465737,-0.02315314869892095,-0.036356081312339576,-0.025431688940567198,-0.02804369432300048,-0.08772564173424899,-0.2412571349200772,-0.16745608681495083,-0.1807953867668171
fRp,-0.09216394095728242,-0.25999052582130755,-0.3223550510232566,-0.08651105526946645,-0.06422210252258774,-0.0011097405834284754,-0.032375359146026184,-0.05237870792014737,-0.26892702678134145,-0.32850468099491814,-0.1089764923465797
fRq,-0.18342928847504822,0.04015995352654094,0.15781904844172182,0.10898363205044619,0.07887671822070032,0.05647226737384923,0.11793577631489895,0.11093284620099067,0.0966704064475073,0.03325601744139532,-0.14602342897978982
kOO,0.03606034107642189,0.15855569569111988,0.13581689392389368,0.27897948767869535,0.22035462193330155,0.16202308668634713,0.38703161010823706,0.21652139124901348,0.12348506085419954,0.14484448264945884,0.32012768663616153
kOOO,0.27698993407417294,0.26216933542833937,0.2844178962104794,0.15357220955424303,0.23849186082672091,0.015454235371015375,0.15552166350945357,0.13613111384162155,0.22088583690765629,0.313652929872867,0.159290611429818
kOO_OOO,0.1640184187903652,-0.3348844556600291,-0.0485211924235177,0.4377282973955613,0.5019139893118922,0.21425389612268622,0.7052804657597299,0.48658256262788635,-0.03935900513091355,-0.2281595793223671,0.05941623338712969
nfB,0.5564835653002236,0.4126575677579078,0.5727227286316171,0.21555792276044564,0.10525385981274624,0.031052111852810933,0.12789227002009987,0.210341009097267,0.4878689151610272,0.4292709481780042,0.37691338852392686
nfK,0.03719032127254451,1.1312996482410878,2.0364313614570206,1.4400915924307172,0.8118613577355563,0.11574943792321454,0.9536356533375783,1.506556854174226,2.05158019937979,1.057087142467254,-0.08174567027893596
nfN,0.4732922364397859,0.5422394350594855,0.562940520834974,0.12982389726757143,0.01750879088549969,0.010497887426275011,0.020685556557412464,0.1357356592431319,0.5406696267297713,0.6127846304465592,0.33521467116300224
nfP,0.5418338316130678,0.9651712736956252,1.0361145285250946,0.3397291757361569,0.09850306585563526,0.013462509159080621,0.16338647033803008,0.40351794519062184,1.1217642247731923,0.9802316226748145,0.5905219944980564
nfQ,1.1600495210369555,0.9263123781934622,1.051201107316289,0.4677240196216588,0.3071507024227397,0.07631075086717305,0.33624492455073174,0.5446206099176468,1.0048583912775304,0.9859889453777925,1.1549847940087317
nfR,0.8190086888369454,1.0452550747562177,1.2748782215008838,0.40924895728875366,0.16148835554415833,0.010288177483603259,0.21029845329720556,0.4334165211555464,1.357545700506182,1.1488103457537882,0.6815828045049773
nmB,0.14341162091033366,0.5112530267635577,0.48287716069759573,0.4114858819748122,0.353956446518548,0.1650360230902822,0.3992061028718308,0.46984960728398256,0.4310894439125314,0.5481290418172332,0.6291767614477506
nmK,0.26036846399439106,0.025431726250424752,-0.10681993487310802,0.14069013504568137,0.11384562362211983,-0.06087479532957303,0.09407219215768207,0.1454630985617832,-0.019493430796397603,0.05362525487839485,0.16755362061866305
nmN,0.3633153933803129,0.4225469120400268,0.4817161594848536,0.5087583705297047,0.44526574636284666,0.1491573197459368,0.42979568130927664,0.49503726269035037,0.40362574691878556,0.49238660669975515,0.4270417538424195
nmP,0.383748975933627,0.43759651661897775,0.26004605468927194,0.1816609835036691,0.17468640213343398,0.0847192570503399,0.17031406308867944,0.15375454348494547,0.21363127291859788,0.37603416521484867,0.35802668714979197
nmQ,0.2569390121537459,0.6561375392753989,0.6651059533316727,0.5745142236885854,0.5226032963782372,0.13461873713500846,0.5259544838238368,0.6390135252624466,0.7227333523628227,0.7038176756725109,0.5478737592436325
nmR,0.43577658369785277,0.8023835185697097,0.6613068152928465,0.5075920670918315,0.42493702972717445,0.080351765576611,0.3690778466273211,0.43649895475880285,0.5615630361169206,0.769935114939749,0.242494124653376
nrB,0.032380361269581555,0.04742816488196888,0.13234941205018314,0.11457240792316449,0.056017106962015284,0.018311298222355523,0.09994263980707578,0.14211690563585005,0.18420541232683688,0.0012413281196498789,0.09577547564504754
nrK,-0.01604716396135941,-0.49595755062397845,-0.8785495435476948,-0.6570811012644313,-0.4110279648028742,-0.09351983288650971,-0.48331077236411235,-0.730098008629383,-0.88199079092434,-0.4499046144924953,-0.14843730449271736
nrN,0.1022285951355368,0.08343302316988202,0.1871768802935052,0.13709910565114333,0.08289572524189362,0.009860093252168021,0.1185574189137001,0.16756318983634072,0.24172780925417153,0.042096700812069635,0.13215081662328976
nrP,0.1311150133943846,0.17856461530925868,0.40453270516290113,0.1841101513045453,0.09192076079854979,-0.012520752129060446,0.11948088033966969,0.16194936072309307,0.3651349032935363,0.15491112846724273,0.096246281275843
nrQ,-0.27461383977821097,-0.17599971471943274,-0.0917813281207156,0.002412412198883383,-0.008611609979014175,0.0007357112693875912,0.03475517535027986,0.023682274641368236,-0.049866407081604294,-0.1932958895230716,-0.08589302617038481
nrR,-0.14742780612596607,-0.33933082899429673,-0.22685478007871535,0.017934871675235796,0.024636664427177296,0.004421862383320557,0.04253742880762372,0.02639495829672826,-0.22241936459617226,-0.3383709954748309,-0.19168500994815107
nsB,0.3774598161933793,0.3169413920924019,0.19704883221994982,0.22308061761036269,0.22960155874346327,0.09340447454872275,0.21417936789719613,0.2224286604133391,0.21473172718598163,0.4058117978943924,0.34685760805317617
nsK,0.178779882273593,0.2593472158071243,0.6176582211697549,0.3436033880448912,0.16332175349783049,0.022276654931254847,0.205433666762788,0.38121082580792026,0.6569561487251477,0.3413978236579278,0.21498901743996401
nsN,0.18196251855822637,0.28369099085902144,0.2407878101545696,0.2161761836245429,0.20798118724424508,0.03852505678735846,0.1712650020889583,0.1930538533452593,0.18158697030897084,0.23575695173772548,0.31729487120122424
nsP,0.1694854468579562,0.07767127214813427,0.04442821981922296,0.18775749607339962,0.20320635516877905,0.024061310560700256,0.12453781088195925,0.11006783259230897,-0.006653659711155501,0.07589589101843022,0.26243743604402203
nsQ,0.19913451397981682,0.8306108799091455,0.9139832353764425,0.7906438383252917,0.6661634206402536,0.17554180784336446,0.5856123030176074,0.7491877140695872,0.9426635698601439,0.7922531689625046,0.18669455645676833
nsR,1.0021812589205312,1.1053183237371185,1.0293905534517158,0.6077334898326735,0.471903379855125,0.08320584340258128,0.4477471250377407,0.610067787312903,1.0610175586359656,1.0979990348830289,1.0102929375483896
nvB,1.585353251909405,2.0989855821930994,2.6775305794151514,3.3160942724867613,3.6137497934658556,1.330998153252239,3.770592731030061,3.370394747517427,2.758551679504727,2.0919478710455923,1.6346465065369888
nvN,1.2639740666106645,1.7789020723734101,2.2535168230388436,2.6367490091256607,3.172613648535638,1.2998660284529129,3.150577196501776,2.638568575841318,2.222274851161886,1.6998855534140587,1.250440132606899
nvP,0.8735781961462533,1.3545791354986303,1.1122949549340855,1.3700159948906208,1.278122383903982,0.5024053379930316,1.3336425609544293,1.3381684262823668,1.1194292211087635,1.2527882914854378,0.8488902954833383
nvQ,2.3113033014432096,2.601618846444013,3.521535211287715,6.717836312926726,8.736837986191201,6.100089252759697,9.081388021394712,6.924758094955208,3.794633450501449,2.715798312192348,2.146604900183736
nvR,1.8012155642687124,1.6873629672628248,2.858153381181722,4.776023447860371,5.613583760389956,2.558103339482401,5.47843214540811,4.606444707190897,2.705966398420677,1.8045471444271193,1.7725258936287294
nxB,0.9716319729223252,0.5897823282454746,0.8543903424464169,0.8472372773403731,0.6954783140630284,0.21943431787596587,0.6410825812669433,0.7363372410423367,0.8815171150995973,0.6194294195508047,0.5156858544009373
nxK,0.20536564861052664,-0.10986324511030617,-0.4741864159723442,-0.06384681211526143,0.057422155360604986,-0.13177655541018732,0.09194896854454492,0.07532246895756423,-0.2829750363318749,-0.08334174662164902,0.22551279810283226
nxN,0.5215312390845736,0.3559368153815018,0.7327167964432055,0.7036272056137491,0.661677626611741,0.2822218042157429,0.6797164518305938,0.7467400940289831,0.6392263586167651,0.4435905269886594,0.5578961518844149
nxP,0.8776014507224041,1.2516624004143422,1.4862995041641627,1.1413344924643651,0.9222624668804251,-0.004240632804060023,0.7914151076524186,1.155017988218041,1.332042352459569,1.0638092091062346,1.021550591089263
nxQ,1.2740407238383389,1.0463720152993896,1.0513013557375481,1.0238688575057924,0.9108239551723978,0.25013911661549576,0.8224022228188654,0.9991101395590761,1.0684241827736978,0.9433611436491577,1.136052937374053
nxR,0.784792644439602,1.0550251948483083,1.265837969722335,0.9035238265431413,0.73533180410543,0.2096522525801149,0.8441114012383132,0.9981253771364601,1.2082144656483367,1.0370100891960283,1.1001424054481717
sA1B,0.018158342985905195,0.022755108765794774,0.08420979526613481,0.16284267808211922,0.12182985605406868,-0.019871511394741186,-0.026664736182832084,0.09393066610916714,0.09034365259657455,0.10117825739972536,-0.08876916125671312
sA1K,-0.2684565829049662,-0.17385671290414154,-0.17022880013795164,-0.16616350576138006,-0.08752335656080718,-0.08756930196325281,-0.1424762097825186,-0.13038404293643982,-0.06775081311102045,-0.25806181079058954,-0.13909340583484855
sA1N,0.07435854312959965,0.01242148052166682,0.08686085889504871,-0.02108648663710134,0.0032926163581922636,-0.00964376450449702,-0.01637473811866214,0.0178294846668449,-0.017511528252048176,0.040057740379247975,0.008839924731033398
sA1Q,-0.02003183746392994,0.0783491563588594,0.1392129869403639,0.4015668553127534,0.45122614903556785,0.11780841861024172,0.4459488973943379,0.29726815944748625,0.34334355659423643,0.12054331875677037,-0.11258501157787457
sA1R,-0.33490383052407513,-0.7769436022864269,-0.37898461772914466,-0.04009696651152054,0.05924449277716029,-0.03476446591323799,0.051600218343309544,-0.06684025025662074,-0.42993433082261173,-0.6406311935307499,-0.06519249842789245
sA2B,0.06339062089899553,0.1669570216089703,0.3069412929732435,0.3027938240986757,0.3846450857638138,0.1933454831967118,0.43017531633786993,0.3214736564918067,0.2824444988022869,0.12263428994156998,0.20364004791553214
sA2K,-0.08341916461072107,-0.00950239445663214,-0.05186686282459049,-0.08457698366019518,-0.1314064958369211,0.07967502464329278,-0.07516670448747378,-0.08331274386212424,0.0804745007663736,-0.023474753452339535,0.0028031295120241827
sA2N,0.1347600048895338,0.026649082465001056,0.01741594772123934,0.09897211429509149,0.06966212281776624,-0.23677487200587402,0.02774091767850184,0.08935945702591187,0.09962377478615655,0.09180499525754841,-0.04952577105971675
sA2P,-0.001123253571594863,0.2500188473743501,0.1981486581696622,-0.05463865630020349,-0.10191959498225667,-0.14557720293147938,-0.00537837389062726,-0.01612715143843619,-0.04514818989476858,0.21342387074907052,0.15290959633167056
sA2Q,0.023118413047422008,0.1178033783121914,0.09065117930674502,0.23305265700748834,0.2610028782136854,-0.04782236892825076,0.17255691065701304,0.22512572661693375,0.10743283707923708,0.14733850244856056,0.11634537839849339
sA2R,-0.19759620015350537,0.06814675805777348,0.06009394735694358,-0.0371566544897225,-0.055041960499824565,-0.1721599599277403,-0.006025091233574358,-0.1043293575764443,0.08799800625541708,0.09609240773596221,-0.1197348383506525
sA3B,0.5036247674986647,0.13561198249994413,0.1452466684031789,0.34616635562421855,0.42937366817482087,0.10472963539239012,0.26219214384258466,0.16307600965888064,0.13066523432968336,0.11029891499548898,0.16996228436403116
sA3K,-0.172630702862316,-0.2269085022477145,-0.2006114449065903,-0.2113909397798311,-0.23333054429154537,0.026027135606905803,-0.26677414584359527,-0.34307065775328344,-0.2383167084619789,-0.19494601479324805,-0.27486111904587973
sA3N,0.11130697498887712,0.19997371077088566,0.3038369847097679,0.22660458502799427,0.06763230011767121,-0.1916362678117231,0.1435678143402541,0.1434148171481438,0.2275875843506935,0.15441792639397184,0.17589868534284073
sA3P,0.44194578877186685,0.0655897301392981,-0.1041894819571654,-0.1531396445293803,-0.16085244390276818,-0.20078227352580302,-0.14691681546533877,-0.20775672943120407,0.26099585826268934,0.2877300460348764,-0.011424875995587594
sA3Q,0.1271312767345587,0.11059032938314936,0.07156243492618324,0.11598781544064901,0.2636452190528495,0.057446619308931426,0.14978681564910856,0.1326019092496539,0.05698589395628878,0.09208548508453826,0.07059884952878293
sA3R,0.04357403456607248,0.0606576908254971,0.07969510360827577,0.08382478410194047,0.0675026468168992,-0.0912762649546064,-0.049588938834066426,0.03450688204555838,-0.022530014487933785,0.07851544631863605,0.003184720119334324
sA4B,0.06856074969726697,0.20837644343008688,0.1291749194945958,0.2341604010505262,0.2650566085269805,0.008958797899434162,0.30005540420745835,0.29059374218348955,0.11541333049085095,0.11047220519955031,0.19925600668823473
sA4K,-0.022093243270147854,-0.16461000348986501,-0.13656946145616822,-0.1402017599959548,-0.13534449031854232,-0.053474455987582506,-0.31285169599240586,-0.29323316139590067,-0.2805886679371612,-0.13926334207610533,-0.10183460059840783
sA4N,0.1138284182705238,0.10490629920371575,0.13008216646703713,0.16887581225553386,0.08696426048002477,-0.1190534431789895,0.16859212074524926,0.2044575250298664,0.05152791721922673,0.1341622075619651,0.14659608312013928
sA4P,0.08091773228358576,0.005039523790657108,-0.06165409617154469,-0.26198664105224156,-0.19149747309025275,-0.19375303963761573,-0.27455477028348807,-0.19101521501430938,-0.17346737156304795,-0.10153795870248324,-0.17415247759323318
sA4Q,0.2331654980427312,0.1533669393437947,0.22718305892157795,0.5588605478420888,0.6859910744340663,0.15296608816318116,0.7028268435764792,0.5910490591625521,0.29639772188496466,0.18652376010690025,0.12670845607211736
sA4R,-0.16977983497676002,-0.07777307259241477,0.15517546212636715,0.1650265383274749,0.017881335128714426,0.0024574301329497255,0.13626190838996421,0.11900321166168977,0.06579128608470522,0.007695821742621217,-0.14847711826246704
sA5B,0.1266687036075711,0.17951100435133474,0.18319955106627092,0.24992982640347475,0.11141505906338123,0.016942609369188805,0.21600085187611406,0.25253869682682295,0.04619220436834385,0.0964246385673424,0.08533307331875553
sA5K,0.16467378831961743,-0.034669948923119136,-0.008790554936126977,0.03485042508852804,0.06941962018758004,0.05095047180024703,0.020108847385801237,-0.12671998520925176,-0.10784846954957797,-0.05131281534383164,0.06283081620444961
sA5N,0.07429570596765664,0.1301363818866615,0.025566940291639334,0.2090819949612873,0.21100683454703684,0.04348721699454747,0.151215507269834,0.19043977042571586,0.05941304439370763,0.011633262873907932,-0.0034339148814359842
sA5P,0.14020342976856512,0.03462098278013907,0.07745935263594095,0.11433403404901508,0.17977136652665257,-0.031572209554343464,-0.02937276533536127,-0.05913088440288486,-0.11996079741808842,-0.08499224294599224,0.26956440304190754
sA5Q,0.02651272230075235,0.03816319032383453,0.14514053247985906,0.17731396737254795,0.16665662817271348,0.003914765978507793,0.1534137353699703,0.06984497492889184,0.07122761893490227,0.0043365900921572735,-0.043844099302829835
sA5R,0.20340218190274495,-0.04586154171842535,0.12333145647342085,0.12963021258313948,0.19131976727783784,-0.00433348657554829,0.1049928993417027,0.053743009617755695,0.14443789183861303,0.05545543190122688,0.07756169310239597
sA6B,-0.029826545625376816,0.014191108515652058,-0.09866602323661554,0.1359143887412147,0.035664928969236204,0.05562398478633662,0.046817037384350696,0.009607353857452025,-0.07071424445220431,0.141434204789025,0.025226586248694532
sA6K,-0.12260524440161531,-0.01423156513386243,-0.1283973176367536,-0.07644135067225956,0.07231569382978241,0.0610239375972145,-0.00466765274789375,-0.0483077315380871,-0.027860097620367435,0.026399533324335093,0.04153525159283423
sA6N,-0.04980867599201013,0.05048627627633409,0.12371397720351682,0.05175125713553925,0.06376778049737235,0.011318610472214899,-0.007989871200014579,0.05731235999472958,0.017220337249130756,-0.05813440380044737,0.0754901417767496
sA6P,0.6301586142889809,0.47411883730688476,0.6006224628552674,0.9591876290042961,0.6520977319000762,0.026463165297334557,0.6223108391679009,0.7378887335167683,0.3111720699281466,0.44397781054126395,0.5789350449964301
sA6Q,0.130614728138117,0.1042577664063841,-0.07100028057308844,0.286107049871897,0.20294634880136772,0.032008799861844364,0.25823860161626877,0.25941483666196336,-0.03049500360200815,0.02553303922811664,-0.1136422344900452
sA6R,0.2035337596163764,0.1160982427223699,0.15229640665204072,0.2161019573529408,0.1295429989175767,0.004691484027452552,0.2237602481475323,0.17038840533262467,-0.04051775154644716,0.1274406126071612,0.15589054253760945
sA7B,0.13615150142530877,0.02361819781839321,0.0043258078403013685,-0.02423044290003671,0.020849071875635672,-0.04065829434535255,0.027292910675387055,0.033740042614947646,-0.0480087673733535,-0.03302470197938766,-0.027070801055998638
sA7K,0.01146042823337329,-0.025779540556538725,-0.15431190953879556,-0.007375917752334298,0.12939521653306466,0.0794602625643802,0.004702748508628478,0.008713899618211056,-0.0567492310912604,0.03807874136657885,0.03549282265813686
sA7N,-0.009752944909409478,-0.0015067271197728802,-0.07412717239775676,0.09266288614012629,0.03012369252138457,0.09014229698923287,-0.02137855707186134,0.06436969962748068,-0.011065281084165095,0.019868316950956852,0.06134187607704384
sA7P,0.8773854996635927,0.7023040056070402,0.8143663486879008,1.3543512119490484,0.9426773690584362,0.3335302760304565,0.959739122639681,1.0820750209682863,0.6740590277965037,0.7925028305994193,0.741064950103583
sA7Q,0.2588869690408698,0.04310928766732695,-0.018249339408480173,0.20579105440639037,0.36021685062791364,0.12055761394501796,0.31177090548695036,0.14397079707578553,-0.09920110010164514,0.1329076275424716,0.23991313917406495
sA7R,0.5521090080791585,0.24739325674398235,0.06002634457685669,0.39309737768621617,0.44161825380669484,0.06069331986046395,0.24248358329793454,0.22082633293588438,-0.01077653922979452,0.19460455996797596,0.439852574684114
sA8B,0.1879004375343909,-0.022826579487059927,-0.08807651034806194,0.05635298375655958,0.10585669971746282,-0.09664860683553608,0.16042708514865653,-0.10574927303770366,-0.08170588310848455,0.025880267639945515,0.038205880480733756
sA8K,-0.1337899025848879,-0.005074352475054961,0.014411075537393897,0.04406939114365003,0.02887897088939249,-0.007560501493540855,-0.05234405579893223,-0.016640612714733886,0.02354963439682314,0.042203882162557445,-0.012154815799491027
sA8N,0.3569144828904738,0.011275045834835625,0.03724422421695165,-0.0695641644413247,-0.02391561035613784,-0.07108013523448169,-0.05188802565768585,-0.05558856018116685,-0.03469421696651252,0.02222290647246079,0.05360138350667227
sA8Q,0.8434872915701493,0.4378710403848687,0.5932960281154246,0.6663973845729958,0.361443035551043,0.16474790627889488,0.5145258838218254,0.7740937614082244,0.5047659700910991,0.5576841831365684,0.7434221283492215
sA8R,0.10014950466702008,-0.025464481285698455,-0.23826205250958776,0.3173492291222976,0.38827862101463434,0.19388272424167483,0.3834125632222271,0.11991980288286891,-0.07827890102296804,-0.08168313635532425,0.13180295068861494
sB1B,0.045101312595321685,0.044082698789363925,-0.022007728915618387,0.09927371870834997,0.15009278222190003,0.08259537144751516,0.0645205793346492,0.03236534350051766,0.021042304190731085,0.019841573970913275,0.06665444230968684
sB1K,0.20829780532474734,0.08533674207640622,0.1772029195219434,0.08455737481402514,0.0568608218636508,0.07962491818482374,0.1287987905560942,0.1611977253672038,0.0035138408008138413,0.05334143922419599,0.22865375656392609
sB1N,0.15562750488719007,0.6060057209294158,0.6005929533365392,0.26475809753396523,0.15619346507255735,-0.06114147993113441,0.22448089692640927,0.19155377804299334,0.2649856458996093,0.2762724447666851,-0.10161653944271916
sB1Q,-0.013638092482960338,0.01248476248692118,0.19363699715554453,0.07292297054890579,0.21281956462923535,0.025511486925600863,0.3299570538175978,0.31915580110860386,0.12122160999622045,0.027423261967241593,0.051224112479206184
sB1R,0.11122734152814018,0.16823683192048336,0.2162534535950179,0.15758526882411972,0.17943541742363317,-0.0667600561273211,0.13457854586645973,0.07860755961461471,0.16434450549359572,0.13200502178364404,-0.02269725083854771
sB2B,0.15547295063232994,0.18422865542854486,0.5590177822996999,0.4054079514904029,0.385287574074866,0.1637632605835478,0.29131057064165244,0.3266953749816077,0.41497503352914844,0.30567661178890176,0.09296572696687475
sB2K,-0.1994176484755483,-0.19562657965136898,-0.4323066214219314,-0.5661144537827173,-0.2905318605600522,-0.04669422857620478,-0.34635490577805844,-0.524162776033191,-0.3640479661962303,-0.11284863108309034,-0.042242095584239824
sB2N,0.04080959021073437,0.05065119409208429,0.08971461288088968,0.12580981243182768,-0.008351469624419988,-0.12390136261319043,0.04651651541395191,0.08792728756260579,0.050463153981618734,0.06967669669281107,0.027260244107208585
sB2P,-0.43675600535572057,-0.549671008664089,-0.27515943065072107,-0.39597369302836444,-0.28282431248494416,-0.06400122600037965,-0.2765314937128555,-0.4084219531356854,-0.5247105607366503,-0.5895193513704868,-0.4946662294584878
sB2Q,0.12275525886335253,-0.03228409294424768,-0.0381361143632214,-0.0660928459482937,-0.06605780471940614,-0.020306744293967626,-0.1558785352401217,-0.04913056858512604,-0.002592520414546688,-0.08767547366933254,0.0016774001313818376
sB2R,0.005056266568467242,0.07182099551825173,0.10629720212842414,0.07971424194500104,-0.12210443135098294,-0.021032006442059978,-0.04474116897163584,-0.004684211264263458,-0.026756059467682673,-0.0153382837619084,-0.19314026038466206
sB3B,0.21567607487352947,0.1051433340169218,0.22997433257559058,0.2244119032961493,0.2977773080695771,0.17644588899630587,0.31754994715652124,0.12572338899564237,0.03359074457079983,0.06593628239820445,0.4183298289258404
sB3K,-0.15169826382102275,-0.2711238386089466,-0.41552742340916593,-0.40968140757413385,-0.3851633444723393,0.00037940038693347995,-0.4103555820894549,-0.5095315331943353,-0.3488995575978946,-0.2920761729463772,-0.37757429169123824
sB3N,0.05272524834491735,0.15348633627160352,0.255417683598783,0.14553415061581496,-0.045378391530157776,-0.025705694856877234,0.01402438178482816,0.20166513860701782,0.1919763133067848,0.23264852901174726,0.2244617113081738
sB3P,-0.337827722907745,-0.1860557372244335,-0.034230574588957875,-0.4438646908140705,-0.34242617294973104,-0.13809573354547178,-0.4236914207849443,-0.440467246950941,-0.30416895115777054,-0.1967630679813218,-0.28698271874355746
sB3Q,0.17920857735106432,0.021033652016429615,-0.17037363444644057,0.032425916443864694,0.16677701372747986,0.11000847915351929,0.1469092376143883,0.012877422291013019,-0.2748879762913308,-0.00973071540723803,0.08663635701095153
sB3R,-0.10590284610261169,0.11437775374416516,0.14413236604998475,-0.1372871837607146,-0.04783582641743636,-0.0501136578351607,-0.045533736576994235,0.04554603597317609,0.07763173389462873,-0.012576138779997133,-0.12792587385141796
sB4B,-0.051790865351284895,0.04781507978318295,0.18479052574512947,-0.10743292291573925,-0.04714968572311341,-0.08400891639416434,-0.05176083860756968,0.024962594922683858,0.09523950690335709,0.14445030057296682,0.2436044966367508
sB4K,0.0724356766113433,-0.16175407874467912,-0.09392149916952548,0.030190701775221842,-0.03640611898206664,-0.08917403675834719,-0.18155457907272934,-0.27177798236570083,-0.2655307922793843,-0.1746608217346241,0.020779062353334817
sB4N,0.059223984938237294,-0.039596820336494955,-0.049256003405611884,-0.0346942070178288,0.02835192447913492,0.028040603336626477,-0.0913486921938434,-0.0442063210464055,-0.020957756508040343,0.00015792165334334313,-0.029871083078930688
sB4P,-0.3175682694165366,-0.4186943700453438,-0.6439664838971916,-0.47445151342501407,-0.3551108051217562,-0.1202893180071879,-0.41145793443745454,-0.5119809580258691,-0.6747865408918551,-0.40332650823328486,-0.4292710891912478
sB4Q,0.03570764489388806,-0.05619855901840008,-0.19818370674068683,-0.17130137289237998,-0.17007566828636092,-0.06746254199034488,-0.1709424308171681,-0.36073625126772924,-0.16965134286622252,-0.0403538010750662,0.007854909201351748
sB4R,0.07487570945293881,0.11227812260762511,0.13456303993191585,-0.017612069880232548,-0.04888950031834572,-0.04353114756628019,0.10396546045306204,0.07978127463396156,0.19235924640542756,0.024876960706986778,0.012041697607205276
sB5B,-0.1133211509951089,-0.2917409862782104,-0.3643689500265282,-0.1395713525353571,-0.05217873516491967,-0.09819957591484202,0.03514038708845046,-0.05648439217644991,0.04414906683824541,-0.11571220178818377,0.020962556331892316
sB5K,0.15398799993430565,0.05090969984702251,0.10512142631591109,0.14339116819941697,0.2907883360588075,-0.06700869487595854,0.2780408084865375,0.11838338175950314,0.01978350205762974,0.10154851069117111,0.29821165684844486
sB5N,0.09814906107239947,-0.060926671660670464,0.20352071582813122,0.07582800325535817,0.1734812196993866,-0.029921300635956515,-0.028826098137753206,-0.0017622890858845993,-0.1786881384676013,-0.021258162354833486,0.0677767937119855
sB5P,-0.15713028468419826,-0.0869585484742202,-0.07134674355014396,-0.19456377246172574,-0.17474397966803198,-0.10482169334823112,-0.30596708803391626,-0.3500783021326675,-0.2759842484930771,-0.23814452970019817,-0.12642311407261644
sB5Q,0.0796558105334155,-0.16178704574072023,-0.08171476360186579,-0.08010645722286303,-0.09440404587726858,-0.06860186892418829,-0.2559169379934453,-0.21561430773915818,-0.158109439478234,-0.11459207362652196,0.0744129908380774
sB5R,-0.006531119888145169,0.07770489385196254,0.21153015327884853,0.05573643083886828,0.04613369648231451,0.0026050816861676687,-0.023250817340118343,-0.048042456680853135,0.08949229739498415,0.013447082469923976,0.047716506653585095
sB6B,0.002422925713269351,0.05640037290963416,-0.0009590209667084382,0.11026979877429682,0.10239679974062371,0.07561724651965458,0.011422267715862295,-0.03526550342618434,-0.18850286257514473,-0.05864282713044034,0.1848313459403833
sB6K,0.0295197349799311,0.15441368611392786,0.18557940732912057,0.341508114607572,0.2910643239960971,-0.10789520489440022,0.26866713010386084,0.18774428282528513,0.003652035475424725,0.0860598416121253,0.09289609070103665
sB6N,-0.12097491085749736,-0.10690027274125535,-0.11377744261381705,-0.28159348647133187,-0.08683831420578321,0.03972454282869166,-0.12923000315597769,-0.19889574567001536,-0.189407737229787,-0.1079855989859936,-0.1925567589291983
sB6P,0.3516958884936622,0.43586753846777065,0.42451671500906246,0.651276868648592,0.3089432018043073,0.14029511239440096,0.5327853705467758,0.6364930154347529,0.5520997644513943,0.3896939566267477,0.318769403964103
sB6Q,0.03504737460053587,-0.0462390453849212,-0.16889467627793148,0.02486236344134992,0.15495548811831306,0.17686553901778007,0.06846800960979793,-0.008649678745999315,0.02725790133504786,-0.19732134365044027,-0.05032453793556639
sB6R,0.08023080869776872,0.18550927488867777,0.17292863249017862,0.1989909837564753,0.20515353272009512,-0.001993959850198912,0.0032050952409677924,0.14396606007301654,0.2364431883708908,0.16990839382579165,0.11805805524446611
sB7B,0.020670998165172563,-0.09701064115758497,-0.03913674830496856,-0.020544900636139767,-0.03376503987905097,0.036609721806426104,-0.10023881848141497,-0.10853287988836662,-0.1633607286600953,-0.15754554683798316,-0.1108552450650382
sB7K,0.04370013568210116,0.22292371511874468,0.14725639311574515,0.1522421021073095,0.3108111992405723,0.06672055905585565,0.23442307508271854,0.07079702102535955,0.04061633594927908,0.13465965583027467,0.12388882189221924
sB7N,-0.07700110788917655,0.08410073768863542,-0.035062888146268,0.006351205152418583,0.0743921172981033,-0.01971529577505376,0.06687634724807494,0.08029649081075747,0.014597037808440164,-0.047411370675546106,0.09044400262505006
sB7P,0.6475786946548276,0.512563644904237,0.7467399262995434,0.8778709673677371,0.9030772194283111,0.4018749607068263,0.8757070971422865,0.95327673012901,0.6914066350128073,0.48604792238561684,0.5132719814687441
sB7Q,-0.22503346100192725,-0.0772415012197632,-0.14560154651811566,0.07540307065649092,0.10084101998327268,0.06285987779032523,-0.1375967934054698,-0.1819266697046506,-0.26330254762947136,-0.27339273726825947,-0.14315202243868186
sB7R,0.1692316362001717,0.17771790636657395,0.09979013977299546,0.2775360044006875,0.35417107683294313,0.012473885488399084,0.40169157071285416,0.2925781496476772,0.02288433686877675,0.24435584982350303,0.45767253876599134
sB8B,-0.09310941846889254,-0.0034465592490435302,0.021220974424423406,-0.07670326738940537,-0.040334178814169355,0.002038273793186119,-0.08112861176005394,0.07570379415816718,0.03411921127140973,-0.017149269944832603,-0.07795254014082582
sB8K,0.11876644399435327,0.010444240494047016,0.061074369634417536,0.07682643786862711,0.05469639886843101,-0.02037495582984534,0.01836557359527123,0.008110886497545499,-0.05762734455222195,0.07326901463215617,0.07033729753411512
sB8N,0.010090087567277676,-0.00900010053189809,-0.025324130589238388,0.0839738033970292,0.10296343846951361,0.011256215100014486,0.05856623861120973,0.012475513117935294,-0.037987281618648464,-0.03891965237177073,-0.05379941877398494
sB8Q,0.4548963361389727,0.24514724048937656,0.1628211615781152,0.14715573865402573,0.2207322049313316,0.09624297292548062,0.1601994896889844,0.2613145429960466,0.2856469649646726,0.39529561486041276,0.21444166383517896
sB8R,0.03396053746365042,-0.04825322211615704,-0.10732746061329497,0.07401870298407986,0.24284280694680446,0.17084296004139393,0.2577815679804585,0.34174806039056754,0.10583648940910165,0.11970412857410441,0.28539908365303696
sC1B,0.08749686604405808,0.3839725560300553,0.4405427051926033,0.23292426926713647,0.3313363701383163,0.17511622230049165,0.3671434120057434,0.2825696462182999,0.5623524761856187,0.4127913908171919,-0.025934364597682277
sC1K,0.5558123228438198,0.222559527556727,0.04312219141944817,0.3054886229443649,0.41946866925336407,0.19444089183747199,0.4360919335385369,0.3383427740114619,0.017511528427802424,0.3501083244524563,0.5547524034473799
sC1N,0.0038782967396627896,0.05233809953286551,0.04507420899527985,-0.015623509017894943,-0.05660137546521358,-0.1639831255347283,-0.02505661274798913,0.014292210990829179,0.1056717647036268,0.030560904857101605,0.034873563923033736
sC1Q,-0.04300223506303649,0.05219201618545336,0.03008262815837358,0.24050840904126666,0.3772037319665471,0.017170471281160674,0.3761025045724171,0.2737118736598639,0.04938227806695015,0.0834072998564686,-0.03849526554041355
sC1R,-0.07733869547881814,-0.18372126574522527,-0.12491150103844248,0.002764443167412394,0.11631163552722186,0.05484166281219523,0.006185796386712529,0.06272881901780263,-0.0082599798342093,-0.3603305060812571,-0.26238468721544644
sC2B,0.015247033188038687,0.325870975276119,0.4228812369460511,0.45083027087255995,0.3124942408832131,0.11600628718858179,0.33413356417895534,0.35466541180380906,0.40948156880777026,0.19938963935422313,0.1353549168145213
sC2K,-0.2384526197888342,-0.10755197499136725,-0.35094364716949417,-0.5320247247251689,-0.36043731900279585,0.012397516112092982,-0.3264634592219612,-0.6206177303655338,-0.36311071402819545,-0.19882144689611034,-0.42294551000115777
sC2N,-0.08762038609996,-0.08816256980533752,0.007897063942707656,0.05026868701337739,-0.042785427530039374,-0.10355316438016514,0.0010974563095422832,0.0949369637414599,0.16618126887217427,0.029640064160365038,0.05486472757292808
sC2P,-0.5934701460838233,-0.1952065661125608,-0.22803206946206825,-0.318138943941264,-0.26162992021919945,-0.11201663964665552,-0.2975247309342261,-0.26230008914203673,-0.14586695427499768,-0.18562402822088223,-0.42764781864028734
sC2Q,0.3592225460683311,-0.17837440201404797,-0.1120933671686356,-0.027195888624264527,0.0903349664191867,0.05303751504062267,-0.06492377477518067,-0.05097176515801012,-0.19803593959315224,-0.2964738575572138,0.1900563946918441
sC2R,-0.01912249411687087,-0.1343168761373037,0.015279526005395165,-0.16423993334644577,-0.17251915641125243,-0.026611463020275738,-0.2285472048487377,-0.17275472388077814,0.023369157648577932,0.0477052333194197,-0.2948174188042339
sC3B,0.26844538728328243,0.19231655470000106,0.16626324245290872,0.05424415429996879,0.08311356253405042,0.0657571261297663,0.06232461810224936,0.0965890590737124,0.06686569735670428,0.07607154604554454,0.02912568653760678
sC3K,-0.10841166232823078,-0.17146539279548706,-0.09601987956068771,-0.3347104472471349,-0.4024776341336899,-0.04354582401547382,-0.337791059964746,-0.28075947175540494,-0.02452532933444477,-0.0724716825516053,0.012185965104222254
sC3N,-0.490914799509765,-0.32525509036656375,-0.2263541352091411,-0.2020923886112214,-0.1619647010584856,0.10284303786207184,-0.18793511578553773,-0.24495117273654604,-0.33402407755580105,-0.41743166552286537,-0.510635456045996
sC3P,-0.1472161035373664,-0.16976899756187572,-0.20767163730237717,-0.44010849079085695,-0.3021455377949234,-0.12980274008052842,-0.3635102841174726,-0.48726496943341074,-0.3443344531826184,-0.15955124022344352,-0.27881561262517923
sC3Q,-0.05877828490954504,-0.16680151660975814,-0.2079472577023647,-0.34610707885785186,-0.2873566750176108,-0.03091153763158124,-0.37135338900098114,-0.4005256817913547,-0.3107064310677559,-0.031187201708533802,-0.018769770478632253
sC3R,-0.21150113476861612,0.09883409185864853,0.045229545551651984,0.011234353966546536,-0.09861757295629721,-0.032164794382301444,-0.10596830814472122,-0.03512919832075621,0.17698687291695792,-0.11884106026136937,-0.05454620845951469
sC4B,0.04820717070135317,0.09473798677394472,0.23067083062186902,0.2637392980585304,0.2944224587007982,0.02338808401653188,0.18737357435482566,0.12692572563240695,0.12591454059902338,0.04239188546357376,0.1860214914616994
sC4K,0.20461426936035176,-0.07856051509102073,0.13598941707748524,0.17781065192208848,0.11404752542484438,-0.04806524262892705,0.0812874506656635,0.02023408488135447,0.214175837626335,-0.04439812907567971,0.11738331859107885
sC4N,0.014204291556832812,-0.06471199763125719,-0.24019147336564356,-0.2167888531474417,-0.08936633976897972,0.13200709964628604,-0.06559361593164385,-0.09013692427424143,-0.09955934919274902,-0.12243801749065159,0.09430167707642574
sC4P,-0.5771192862723742,-0.25795294191140866,-0.5887404120676103,-0.5685370292712327,-0.3516213347397559,-0.045979740632080046,-0.5015841424411362,-0.49891680789208315,-0.6983657648060918,-0.35673246224272503,-0.2997832689559404
sC4Q,-0.21999305947349043,-0.2550391330458701,-0.5330754994399608,-0.5750858892412083,-0.48876045355855635,-0.15417587528686252,-0.5448765592844641,-0.4759811575883418,-0.4129119671172478,-0.23575779502319366,-0.10699162521146502
sC4R,0.05653997943913114,0.06289735548680628,0.006994895928298841,-0.15075289774745332,-0.034533306233772716,0.014460130847434326,-0.03533454077180846,0.041212137135735114,0.13803884360665009,-0.03313285815878391,0.022157637408602715
sC5B,-0.1938191560599563,-0.0697686865912134,-0.20215979824884917,-0.08444098889023675,-0.039209524166838955,-0.06899281965622059,-0.09027644989675226,-0.17743366677606817,-0.22525038373168774,-0.13113384442773274,-0.09254263193626425
sC5K,0.3109428007779389,0.28060247378921443,0.1209199991020079,0.32412890042384235,0.25712844557019016,0.006202527898787892,0.15648150904328362,0.3077730261104967,0.3537333353105939,0.1296080267555319,0.3651124975972951
sC5N,-0.07302298301356672,-0.15497489500591424,-0.2341113317848928,-0.2082938030779455,-0.2283116338781447,0.07064393025416749,-0.1583672371095831,-0.2969175109931086,-0.35145980187507236,-0.09967881163580311,0.10856996174545334
sC5P,-0.12711832012821295,-0.26861258351064826,-0.3626342305682337,-0.38442751987129625,-0.22392069924617583,-0.09313726175588172,-0.4691202742850258,-0.48841742559235696,-0.4764302814262915,-0.2165778933683059,-0.25740500084210916
sC5Q,-0.28715028142100285,-0.17022555155221616,-0.2943284101026217,-0.5022806410220909,-0.4352432175919909,-0.18703129112296726,-0.4058586161021574,-0.45182201546984624,-0.31639147032930665,-0.22508071595527868,-0.4356450643909585
sC5R,0.06778515435002636,0.0744127715627417,0.07817293268332286,-0.0515232359662387,-0.07868229695857974,0.007247881661983281,-0.0921996000906613,-0.0731360477737783,0.008366183907956381,0.009012435877976005,0.12461480306816133
sC6B,-0.25363636100434034,-0.24415394960866418,-0.3010879796914084,-0.36305608799314243,-0.5829018287911503,-0.2973288672229286,-0.6768283557068815,-0.4660862581379385,-0.38584453056324247,-0.18504789721550977,-0.1481411111854771
sC6K,0.08663025291914889,0.1617291610616366,0.17826954816354587,0.2566845815681729,0.20448310867748742,-0.058619683352231715,0.466935894010066,0.3540119040476924,0.30744495488465584,0.20722145251985857,0.4522199000962367
sC6N,-0.17601997956353196,-0.12949702062364327,-0.23734396459502013,-0.3034957244549383,-0.5649998516094534,0.048117802478172524,-0.5194033619093964,-0.40398759281966906,-0.13682850576870179,-0.21442656253565306,-0.2578890990628287
sC6P,0.35286145726506696,0.3376626855571429,0.3342783478649794,0.43062424981793507,0.35159503074944287,-0.016583653997550962,0.3425381744765623,0.3615324638566665,0.13956176346732388,0.12023094134039326,0.2768148047244668
sC6Q,-0.5674738488767284,-0.22727745131323623,-0.14064190251440783,-0.19495554441793916,-0.19464097917223075,-0.031191030731887653,-0.06506098183811396,-0.19326538165616294,-0.14198003858944083,-0.18065135721059553,-0.5490992125776388
sC6R,0.2544072537099924,0.23260693401200339,0.029777543765144864,0.0025564462255096205,0.021150778547604103,-0.11910994550317623,-0.01655671615137697,0.004707159949984929,-0.02544659485742362,0.05031209789331172,0.0753958574936563
sC7B,-0.06346599966521194,-0.054936903904362906,-0.07320528405346045,-0.08007650653731192,-0.06101587578157971,0.06916638222620441,0.05572482022371299,0.005996123569250337,-0.18914588826428605,-0.11724983200638375,0.05627987717778758
sC7K,0.19468901808155864,0.13084880280007696,0.07382644668679897,0.11552171568492628,0.04848860430528743,0.12764712885569504,0.10588822787701126,0.08609528434287834,0.01040148668292414,0.03246545017260111,-0.04078049953732424
sC7N,0.015301696976810305,0.01435581045660385,-0.07752505585800802,0.15047264191226595,0.25864238066533807,0.10743995183415572,0.2947012331089615,0.1955735435384287,-0.13343529546710345,0.0035503224241486523,0.06161644732441949
sC7P,0.6314143763471546,0.5426790178670675,0.526656021148233,0.9676337515069761,0.7664937548601964,0.2786384210621862,0.866089093303371,0.9716618264729165,0.5106753122768386,0.42751801921274823,0.668021413120947
sC7Q,-0.1425730560601265,0.1296720122543887,0.007544155973221531,0.04904840476186454,-0.025261641056456032,-0.03824113929642015,-0.008635171899336581,-0.05747255225816956,-0.0038383086767552173,0.04561648687149475,-0.301727675480424
sC7R,0.7439100333842529,0.2609563251183615,0.2268767976543352,0.4325037700159801,0.39613713503161,0.05773327556784895,0.40852083587066734,0.5017613430188608,0.27078967530466874,0.28340151649317097,0.3937839964933902
sC8B,0.13569981676285217,0.003770460899765138,-0.019689524757318184,-0.08218964198492625,0.0057533111602510265,0.06565299847884636,-0.023246996010793795,0.0652502972868574,-0.027149224571732262,-0.028794387971207397,-0.07398078966068022
sC8K,0.08661865353987408,0.04050423012862816,-0.051609365017488903,0.0819908255886645,-0.018703153681744245,0.010093669512870048,0.04142442922325213,0.0524046729655397,-0.04441817965110796,-0.006153217905777693,-0.04128588876213611
sC8N,0.09576748389682273,-0.033274168340602726,-0.07442105403390925,-0.0612579793281415,-0.031881519473357656,0.05112243469857189,-0.002584519217284204,-0.06982564188705692,-0.1045638197060306,-0.06861724599344059,-0.046782502691749245
sC8Q,0.29844503539114575,0.30591742792735555,0.1881809769126474,0.31159284987322855,0.26097935087435004,0.1559106468100379,0.1277385855514151,0.09546334895992875,0.3045378741324154,0.3426439276564264,0.21242370654149112
sC8R,-0.1461019923674273,-0.14795962556960873,-0.06403014969008483,-0.08636916153979633,0.22206371957293566,0.30220000996190916,0.2364493213378794,0.054662034454126304,0.011778371094649407,-0.14488829261290187,-0.019515155465282926
sD1B,-0.1279455796065651,0.12756718412376128,0.2016780961154331,0.10705091867766516,0.03803256358126834,-0.05368953760439212,0.10392242555498125,0.14499840992183027,0.06774652150158392,0.0702261247334579,-0.054065380396112736
sD1K,-0.011293869774331639,0.047356599218982894,0.13111134336491442,-0.05972386411981654,-0.09347757410014466,-0.15867553938187223,-0.23526205311140966,-0.18476160481104673,0.0902971480675547,0.022258475521693116,-0.5163458185407342
sD1N,-0.05031084088126907,0.1290961411742993,0.06296620019375794,0.15295678382666775,0.17021261743376548,-0.05934178050900321,0.09141287483815831,0.22715476071900653,0.10170128989422325,0.07618785101403294,-0.07881489318891365
sD1Q,0.9747809666134368,0.006714658722443089,0.2951955220540043,0.6899717869050028,0.808544832792439,0.2781984667527548,0.8250644892690928,0.6219761764097786,0.26545002309487675,-0.23339683719358043,0.8003143212130834
sD1R,-0.02636074133755985,-0.34629284851627967,-0.3115240672940106,-0.04663302762515158,-0.038657003273579585,0.010917652782772007,-0.07734934801771125,-0.13745701927116385,-0.42235980744563995,-0.3364815621396723,-0.12044185233895674
sD2B,0.17348467353887417,0.4267335752468977,0.6720341637560621,0.40969400789561605,0.2949715694813063,0.026572166724744186,0.496753653334896,0.5603088151888893,0.8175306352782624,0.4978771147072863,0.141723552099767
sD2K,-0.3449517528786489,-0.4278644359926252,-0.6836550612177018,-0.7184361410514959,-0.5046559980755295,0.015773442648721398,-0.45418465053720103,-0.6457419558980336,-0.7237589159857793,-0.4165550925184592,-0.5925628579625027
sD2N,0.1214339270859313,0.5035334756027737,0.6857718771303353,0.45597700079108205,0.36139914546750523,0.15654274703687737,0.42578514898672964,0.5215699811876213,0.6369528584871185,0.4152637709979125,0.05220620804539982
sD2P,-0.011730515825000792,0.09716046267233656,0.12063672145988245,-0.13195713154512137,-0.1323609718817751,-0.015821147482094178,-0.36398291283882483,-0.20595668778180956,0.1311733584502384,0.19156540654985432,-0.12531196444787807
sD2Q,0.19240821093935268,-0.09193436478268252,-0.05976957393821371,0.020871856723582927,0.0886574899130414,0.05678618810112576,-0.07448914399970327,-0.07445404689853113,0.09153268942583301,-0.04270025247937924,0.154584118050247
sD2R,-0.18877388106090817,-0.21494438851277492,-0.06336782920135996,-0.1262058498649623,-0.15023637538813306,-0.009779471714663507,-0.27014734953413533,-0.18443894132035404,-0.034411525355109995,-0.34674959413352957,-0.22088286061929663
sD3B,-0.16498869911198188,-0.22991504686787578,-0.2011838513159374,-0.09886747771400597,0.11840461129993786,0.027209803234405444,-0.00690951796973679,-0.15408918721939563,-0.2624369526682286,-0.14012474978946066,0.005596692125037776
sD3K,-0.3044389485822525,-0.16927324958505824,-0.0011325608285529978,-0.35633560431033706,-0.28691636918418173,0.011985469832178576,-0.3602905443209303,-0.22778101540443713,-0.05593114079101883,-0.029019116456983164,-0.2707887646797898
sD3N,0.02837434082904491,0.009866674228010693,-0.027111080842497123,-0.04917002975597066,-0.13514846647586765,-0.09066380688883166,-0.13456318453163918,-0.22680911382921976,-0.0270986133981509,-0.09591580670353306,0.0666498167437939
sD3P,-0.09080743307243894,-0.09240573908566108,-0.241954188118977,-0.32830622388893355,-0.18306469333368816,-0.12551202746760018,-0.28693713011222005,-0.3575971098063993,-0.20726320435115256,-0.14876248964066183,-0.44208103023367634
sD3Q,-0.06853571382988469,-0.10280526701601117,-0.15312093673869082,-0.4184070881909141,-0.426906737529548,-0.11339751965664283,-0.4913349323292196,-0.4102485590859729,-0.32386425410812447,-0.18145630259881165,-0.19699422190422192
sD3R,-0.25013338566325316,-0.011789160533600537,0.15062739402727168,0.055724014619699724,-0.11359454625719896,0.04712505514319745,-0.05829781612875125,0.07199395159718969,0.11154983515782323,0.0008734809820283703,-0.1571340055922655
sD4B,-0.2701844708132893,-0.13384121819454975,-0.05912117761598767,-0.14390151399131884,-0.24917670599326278,-0.005192094837307695,-0.008911950888734121,-0.10008991576936019,-0.03911931642175938,-0.024126073258525796,-0.11164969261792283
sD4K,0.13019612304015776,0.22161232122638716,0.1452459072826452,0.24611604761083203,0.18147282565872225,0.10901079239543247,0.1291666223881805,0.14665854737363185,0.17190197989539382,-0.08025727885616835,0.15843537421773765
sD4N,0.1757778269415624,-0.08633621677284588,-0.15316191046193994,-0.16949263834882508,-0.10819903149910812,0.0766467840248436,-0.12714048716865436,-0.07707127662133083,-0.17257185882007525,0.07532227477744677,-0.034630127940983337
sD4P,0.05071791167073733,-0.642050004362074,-0.7953514975603675,-0.2929905490608993,-0.15736079914478024,0.09926717385088549,-0.314445111294517,-0.4826979880969043,-0.7810965693217695,-0.6454719608457831,-0.3817619769062648
sD4Q,-0.40047463637126085,-0.5129881309231737,-0.6690733767527867,-0.7379144132949083,-0.7592089092349763,-0.10777689486923696,-0.7260484602977076,-0.7417270554989571,-0.6178274134763131,-0.4939677464485451,-0.20608182156974003
sD4R,-0.2915007121488061,-0.1573247998463041,-0.23005236047384564,-0.15800347051436103,-0.21053589717485527,-0.035006994498843716,-0.1258296169511107,-0.1316537342954847,-0.14448452661018898,-0.006751397643691648,-0.12797839560579877
sD5B,-0.06755461573482652,-0.12427906185326956,-0.1515441604868724,0.04848907201627321,-0.17241468511064356,-0.030539387952886424,-0.16113839057660656,-0.1695700580907731,-0.08892539188885466,0.02432530074471734,-0.06684729815557426
sD5K,0.2224659926966872,0.19221061690922855,0.3116834827322969,0.5307169891305097,0.4136400679886847,0.02631646749611018,0.20583836576951556,0.19216951828716888,0.33713796636330934,0.06530287452313259,0.11693014891616421
sD5N,-0.13186569324736025,-0.0881815293806088,-0.0792742424208792,-0.10516629717401486,-0.01692230309644993,0.2081745706812318,0.020235457206215647,-0.11058398090408998,-0.3422448642059772,-0.0911267358735945,0.02331127100626
sD5P,-0.34096137917607144,-0.43591320218098834,-0.6028735368439667,-0.489162383091246,-0.4687939748010529,-0.016674512910038148,-0.3837086580850655,-0.4717032979641152,-0.5310177921276045,-0.406639307343697,0.007494937714180902
sD5Q,-0.5234471580332701,-0.33790033617341314,-0.41589938827988665,-0.8264518822573994,-0.7411528512614591,-0.1770069675460515,-0.7053827372241388,-0.8736647915322563,-0.6128790010805717,-0.3356994648190028,-0.4709335965298115
sD5R,0.018748556390447976,-0.14615414767119828,-0.06976075141165587,-0.16190481251230526,-0.1984471850203008,0.005118673874544264,-0.1441751212646001,-0.20764269961346593,-0.12488911232460159,-0.06071578625650449,0.026590702004704234
sD6B,-0.16275904492638518,-0.06948486239187122,-0.19988532990495173,-0.2959877262862092,-0.2953039296756607,0.028857843957349305,-0.11879387736000234,-0.14406154717282163,-0.22307553829355628,-0.09327155098888805,-0.17839955765867105
sD6K,0.25178528539258477,0.1931375008011916,0.30074095363854014,0.3701793177043864,0.21638012824954475,0.1697013157823144,0.271699278238805,0.32089484965112536,0.20837132169483255,0.17859556370215765,0.4030453136545191
sD6N,-0.030486380478923828,-0.2712557670940348,-0.368701582077853,-0.2620887588794431,0.00811248037135335,0.13842384019695705,0.02096529360739844,-0.1604086985397867,-0.295849795524355,-0.26084674311325445,-0.03216146692069408
sD6P,0.5612307394563397,0.13228807496986641,0.315079487266254,0.45892981687878137,0.25081163145082824,0.018180639212657303,0.3663238422775759,0.3705286384979459,0.12815088450956963,0.2638439810206599,0.31857626951750706
sD6Q,-0.18604771279483706,-0.11026836020681428,-0.08679726677194452,-0.2256340264568775,-0.17966974154488619,0.0468788641228641,-0.06726138948863979,-0.2080077024647881,-0.08571131898129997,-0.12550248194939417,-0.22377370474730857
sD6R,0.13285867118956246,-0.016277573855008352,0.005395548200414121,0.05838194775097323,-0.02085337336181305,-0.040228403401355306,0.15719993073587332,0.14123743646821724,0.07658759970540982,0.16088068784348253,0.05529765132091351
sD7B,-0.2999882077993664,-0.040312233033326865,-0.070645555927901,-0.1887655634747994,-0.24126263436820675,-0.3688052892558685,-0.24695579985040733,-0.2884572515589581,-0.20733521556209356,-0.06431924929219088,-0.08863968749981263
sD7K,0.08006199231131199,0.010706992938721781,0.13014845496722985,0.14087735695396264,0.17278466269965942,0.089873421278881,0.14229229721605285,0.16259217537114928,0.14045483145859958,0.08768436786542926,0.038782115704888424
sD7N,-0.03120831261743143,-0.09371888145375235,-0.12166076466471692,-0.1862249373313191,-0.13600701000319626,0.1798712954473312,-0.17909428582077308,-0.20440722838800987,0.018601998681480613,-0.062136829843429726,-0.07191387828380486
sD7P,0.44108617801130945,0.40601431640738067,0.44061658528466335,0.7463236177719094,0.5398362619295389,0.3855989453489255,0.7055484213046834,0.7109369922672321,0.5249788557609839,0.509541293693551,0.5496412563695863
sD7Q,-0.2639224434648053,-0.033146229068875495,-0.0511362846251235,0.09897455296738923,0.19079542562012144,0.22755233334207114,0.24228423784354844,0.167743998964244,-0.04011615941064314,0.06270789446319597,-0.08104047022804654
sD7R,0.24388034498194563,0.3519657912863809,0.05502766370860065,0.3708719494602977,0.35355278803310164,0.14952161144363146,0.32590903813695365,0.27559656690346296,-0.0020444802929348725,0.164731922714911,0.4241467682735301
sD8B,0.015020400428785953,-0.11028113799589176,-0.3139500974119636,-0.12368720863579553,-0.045098979797432374,-0.04417960678588788,-0.06435971466303834,-0.08845479444536726,-0.2073724830023107,0.010804046677075496,-0.058046938411745505
sD8K,0.009434231922452567,0.027125321027398955,-0.08240085109175356,-0.015455597593600892,0.03236253053426345,0.01209953918755811,0.012913560701046684,0.06871322440881172,-0.03482175620175882,0.04767858419830348,0.05074554005612443
sD8N,0.11459190135127909,0.0085630875971546,-0.07005352587938729,-0.08625343968655474,-0.07170911805999831,0.026924588056205092,0.014301527797447621,-0.08276497884038081,-0.18629416487810882,-0.08523090968488285,-0.19978442059457704
sD8Q,-0.3155027819662745,0.007044190146711184,-0.14990098395344342,-0.007991518286863421,0.20146120557643385,0.36435696284855773,0.20167038029137696,-0.0344461867887644,-0.29703857756323565,-0.10014813369106662,-0.09489358670633966
sD8R,-0.2704424754448948,-0.21017785976742612,-0.4285549237768066,-0.23289209934593746,0.0021437107292326006,0.31595862118713425,0.12495023408526881,-0.31013507500622617,-0.431961039367665,-0.2676135649742904,-0.43919486731813673
sE1B,-0.10004133491531587,0.01433888340953505,0.19406908451053226,0.08996159777105452,0.06323181780522723,0.010823390830375408,0.013342565408384393,0.1286789769142396,0.25532729759073486,0.07439410838919121,-0.09329487611614462
sE1K,-0.26093089625613375,-0.04423869214664162,0.3075407602410031,0.20250912601694393,0.1748098422519212,-0.058827071226072364,0.10537006043700747,0.06489197607782214,0.12409016895007814,-0.029078325232163697,-0.13405250823554934
sE1N,-0.08960772984885289,0.04154113729975158,0.1946023368981163,0.18648644612247095,0.17520325190841557,-0.17445569162687616,0.2001174379511548,0.22765783196546902,0.1362229050748333,0.12549888097803613,0.039727983083559106
sE1Q,0.05174733757618442,0.09913605550748984,0.24043437870134782,0.40265596315645813,0.5251409116638537,0.157297455549675,0.650305086808376,0.5254199440744723,0.28132670979467694,0.15482979443182657,0.1360673185440154
sE1R,-0.1528781598089093,-0.1968997105806454,-0.009944218342898518,0.004852259945731663,0.1362120835903472,0.07489592467773544,0.038403395085681274,0.03321138384887915,-0.04878952637262217,-0.10146282450657206,-0.0028443102758155384
sE2B,-0.07355120318787443,0.3002541161106878,0.39374880378207616,0.21753502436582353,0.15666767286432098,0.02163137156200972,0.20493423597607882,0.3797475958654696,0.5054190078111027,0.4517235340462038,-0.01049949901373866
sE2K,-0.8218686912170015,-0.26794641801819036,-0.849136551455953,-0.824330777255903,-0.5090063621925888,0.0023641629923698256,-0.41690139990224007,-0.86482189045081,-0.7955584767676881,-0.29748058389219934,-0.7188270003293658
sE2N,-0.024802272496542967,0.24003924816112518,0.41457163612938874,0.3763372239747991,0.3360776706203477,0.04653264860825099,0.35263035254962144,0.2721760356430182,0.3824176252836833,0.418678350123406,-0.10615727925662477
sE2P,-0.3453688179071084,-0.3852188053190933,-0.28341304900007785,-0.456894983802453,-0.38500487741486883,-0.012958388852900782,-0.24281533674398173,-0.24485471591857497,0.17648365724392412,0.11563536067498315,-0.08224453950862409
sE2Q,0.2789947224623836,-0.008108110003843119,-0.03998490939825203,0.17296881641223166,0.22420897250995672,0.05169751205333104,0.08675875243646161,0.16859988603367307,0.013189042052262673,-0.04775853415861052,0.05056507997513928
sE2R,-0.1572199350489628,0.08069727015308813,0.03554219416642952,-0.10640618621408048,-0.1448398300757285,0.01943979199139369,-0.14577458711952387,-0.2028218800608032,-0.25248521064483825,-0.16319235557226314,-0.176099824673239
sE3B,-0.22513937121689453,-0.25895406617629274,-0.08124123356281872,0.08967460019256537,0.09793220108886622,0.05028499480239379,0.02529139054660587,-0.07144936440189202,-0.30749420207052724,-0.19197750869026745,-0.253451773074313
sE3K,-0.14262957263005493,-0.19771403721299485,0.024023336926471746,-0.30513705177281386,-0.33914901350767285,0.04082298256208773,-0.1686759625973825,-0.12700257651371216,0.046560239410136935,-0.16270367643413422,-0.2725760668719044
sE3N,-0.1548549004363029,0.09399656059615512,-0.07985417434423063,-0.08891868605035705,-0.136383207800451,0.04613502068605804,-0.055103561199186156,-0.14736212879484636,-0.006466748945570519,-0.029716811103850594,-0.10028987174841705
sE3P,0.25522647504406876,-0.21128654785028597,-0.48334678535457565,-0.38579943440540104,-0.2612291739231935,-0.029702198063542618,-0.3022390314547782,-0.3280048582456384,0.005079346627816856,-0.11049139933608945,-0.5376969612923924
sE3Q,-0.002635074452167102,-0.041341947923421614,-0.15453733086887672,-0.38234664341100005,-0.3519434512383172,-0.05835690966977873,-0.33864712736480473,-0.2655288397859712,-0.11148174672077721,-0.1724460373350095,-0.22838741896912182
sE3R,-0.3513901578561039,-0.06045620471967998,0.19575542750482466,-0.001356661933711244,-0.24645522960881205,0.026574085999333214,-0.22485245602412865,-0.08859043352053396,0.11228366721293355,0.11335148953934067,-0.10775063462989494
sE4B,0.14859573618892777,0.052487398101717084,-0.014077584333635252,-0.18962705280931988,-0.3224254833557079,-0.09858867563364115,-0.28805347916415236,-0.16813341353262873,-0.09747357589586172,-0.16191470753183504,-0.18425626460723254
sE4K,0.1531125801493032,0.08769797127612727,0.3389777274150798,0.35193178285782545,0.10157938308512154,0.09939598801159842,0.18678410850776406,0.4049434281853845,0.27185924398574757,0.013974575256555016,-0.0806811153066009
sE4N,0.2137138465926229,-0.1494558062823498,-0.09986148912051176,-0.036451144948352526,-0.04164344895935067,0.11867967119866167,0.025266287187321518,0.0808916265810644,0.04324235354333547,-0.06325265850639337,-0.005842872356681005
sE4P,-0.11506216610889447,-0.34946489744481923,-0.5128842269686016,-0.4224862959856524,-0.1362303680560106,0.0618872610843875,-0.49093087975463867,-0.4804804698347008,-0.6909369665098636,-0.8647518000590027,-0.4575638560684356
sE4Q,-0.4823117883795575,-0.3661089875765103,-0.47911596282872526,-0.6729157270237901,-0.7644648198499275,-0.11945812678893522,-0.6765399626062674,-0.7773410560219,-0.539492696256199,-0.3525094880646708,-0.2614568780475908
sE4R,-0.17864671564152582,-0.045162327833796506,0.167731054020435,-0.08298921125940936,-0.006514554998316709,-0.06978766296758962,-0.19601874214890222,-0.1389674653496246,0.05279968349077818,-0.03660163544771648,-0.1714528808630631
sE5B,0.03669358360301579,0.0803623180490481,-0.15377371503102744,-0.2244556904747793,-0.2814798218974487,-0.10008667168588545,-0.19617766988503346,-0.1925771947641478,-0.032821029730302036,-0.03931036501491024,-0.14875331247885712
sE5K,0.2609551041644133,0.2772046680400371,0.3700886337122113,0.5656938189115736,0.3505647487566853,-0.009817487490831943,0.3371608103678501,0.36963933773061725,0.43031322777475695,0.2958751411481544,0.3075057687787363
sE5N,0.05430537747956477,-0.1460186166707295,-0.1634215315842339,-0.22558318342634412,-0.1324917135920976,0.1632002024702057,-0.23067277152079313,-0.15568925630138555,-0.2189090397389983,-0.22203062786936206,0.05587510458433774
sE5P,-0.4758114491577843,-0.5181012303611656,-0.7251474850525618,-0.5383271876345261,-0.4275522394300194,0.0635563507085748,-0.26364952517267537,-0.39643351794367715,-0.6724315608823185,-0.7583343762736194,0.06318135407604289
sE5Q,-0.4992516162558375,-0.18300923228678412,-0.27138575392214764,-0.4821864107690926,-0.49072320235281314,-0.10093987354827887,-0.39759367364241216,-0.32468978046878816,-0.19554669272392902,-0.20859610474313905,-0.35562868336499665
sE5R,0.01866181313468603,0.009262271427825392,0.043250533934552686,-0.08241787917504842,-0.10209050649586533,-0.01021541770294038,-0.09554149509716033,-0.08072779345107747,0.026625497013830688,-0.141374874171853,0.0454267515302576
sE6B,-0.14519784381260328,-0.04567840474060859,-0.05125855712380097,-0.1251861653302938,-0.02979161927114209,0.053490201748926595,0.0049513705029442115,-0.1067389744922348,-0.15018679306695248,-0.08956315818434679,-0.030112110429412982
sE6K,0.20411783734082317,0.20152792752131501,0.32747228806380174,0.3598431736462613,0.31151754419135574,-0.021703305394662177,0.21414734939885235,0.3616585770631775,0.22771915243600466,0.16301355896358075,0.38769355140460066
sE6N,0.005592449912767652,-0.22138284820233048,-0.34076695578292804,-0.2877940626284059,-0.05987448291997143,0.1367848650173862,0.1503929102317129,0.01501996301941879,-0.17637230035556048,-0.0090464515898276,-0.09853493932077935
sE6P,0.3398465829551632,0.20509268200908107,0.2659358657195367,0.3702268420615889,0.12673499215234513,-0.028175893341384796,0.29935757885251385,0.36367316098662944,0.2528451650624413,0.1658502501077714,0.46832888934503974
sE6Q,-0.4358042171721667,0.10520853083971674,0.048612202602426026,0.14852896873621685,0.16205810001114737,0.14681767944702556,0.2039215008255088,0.08051985469713642,-0.012421349537282233,0.021093468560680746,-0.09419086443468284
sE6R,-0.013176757124326048,0.12963689654417104,0.110478422066869,0.0810531476730879,-0.04745644474734286,-0.03473029120317784,0.07451075854483832,0.18293523808949053,0.11471231204510393,0.11115088020565103,0.03696462800872735
sE7B,-0.1911847054145944,-0.09344415641410127,-0.22935068851124468,-0.20031603172556986,-0.39096028840864383,-0.07713385612401018,-0.3245592645491269,-0.32773009192353164,-0.10770494501443928,-0.14305947611494907,-0.17551704150461012
sE7K,0.17410091443731243,0.028865533618871585,0.11698655501900478,0.13418062249010113,0.08274370660144872,0.03258552623166214,0.16515339378124794,0.26398014755449467,0.10598625735324736,-0.016042620629054948,0.10616818823073894
sE7N,0.09757018067355089,0.03709726210892409,0.09643387957741281,0.10288055041437617,0.1536303638225077,0.32773239509614954,0.0887555174550985,0.016878280270608538,0.1296388017098032,0.04307056501812004,-0.05507218682718582
sE7P,0.4172604390731085,0.32611857417226886,0.47349928867454594,0.6871823513562898,0.49809685285477384,0.20129588914827298,0.5484310743006385,0.6717428743394444,0.5311094311506973,0.4381483335062412,0.4596769884166397
sE7Q,0.007289582435243294,0.05379919407459181,0.0007900754962652389,0.1789570563461463,0.12442183808093998,0.15615327174497912,0.16858169030908673,0.1795364595705524,0.04647804134868759,-0.03268283107348051,-0.2149497791152258
sE7R,0.38994566681236087,0.21092283408752702,0.08261722432211331,0.40727345040649177,0.3412169645657523,0.15316802765455143,0.4352603802943603,0.28339115351623295,0.31524275471896956,0.33206009107663614,0.4045106748923002
sE8B,-0.3651040158139585,-0.04116572766149787,-0.11917070317036065,-0.03787159113377036,0.06809517920287579,0.07970135188692125,0.016910226818541783,-0.08879682844938781,-0.05227344715766114,0.0014666746932495962,-0.06675504752441704
sE8K,0.02828046049022959,0.04872344963733602,-0.02891018806073584,0.06201303871008338,0.07113967719124077,0.03824676138520845,-0.009199982672468583,0.022958358320634687,0.050749706520423925,0.04925657530152251,0.022663132809042804
sE8N,0.02177259606601877,0.019387462494512387,-0.025204211746372374,-0.004207834254903611,0.012999875604070584,0.0071102016822640075,0.04270202686152856,0.036705322585404904,0.04531842797809921,0.06593887031289977,0.05285339942253937
sE8Q,0.23478601756976683,0.1851534304758995,0.27093719852656195,0.24085803004640213,0.15354574502762394,0.19083738151705226,0.20638280416794286,0.22261521127415282,0.3531728231400343,0.2899455709025243,0.1207713722755169
sE8R,-0.17548390099580774,-0.3788132571310198,-0.30669965545920863,-0.09045287008207767,0.15156172378925778,0.36101346617455565,0.17630682312950402,-0.08443505273666617,-0.2651607346997631,-0.21361550582801886,-0.11644880429534628
sF1B,0.15875408890010387,0.015809671078320542,-0.025245012538413415,-0.07171321047265153,-0.1202848827345183,0.035124948420020466,-0.1423015941971479,-0.1462290591982091,-0.06540235119589294,-0.05055052983832017,-0.1808163151366978
sF1K,-0.1932799506212999,0.2795882562103837,0.12847519299174445,-0.023450324225230895,-0.20115535810998184,-0.15393443526725595,-0.21622395103235614,-0.11042931658002934,0.1605633214251429,0.20568823089324761,-0.0988905614216874
sF1N,-0.08683954801104879,0.06652137138367928,0.0348067112698836,0.11530770683850823,0.10366730671875672,-0.01817590107537979,0.14935326455466874,0.20750300484704773,0.1427876065227689,0.05798331173306061,0.03265908713178865
sF1Q,-0.11049386455592539,0.10649532933715275,0.14417112865073853,0.24867191792353796,0.20106968859819618,-0.07216907549973202,0.1446459250718199,0.2600882671236402,0.26566555940897685,0.08489466405550071,-0.0011648379708620459
sF1R,0.2847706537469182,-0.11085602237982894,0.041368175513457825,0.3002188417961778,0.34362030491105694,0.08570469486616307,0.28303366670100616,0.28273547383572223,0.05084623624486242,-0.13363068067001815,0.10932041027883291
sF2B,0.020168073453709284,-0.01522579872027181,0.010104915074585625,0.13110619364064763,0.09690614925932192,0.05546007770553598,0.11036939319911941,0.22140000175665198,0.189868071442671,-0.07174666445002999,-0.05214487353297599
sF2K,-0.43090403297835705,-0.24334818112664228,-0.7195892406735721,-0.7923552948573407,-0.5185067443838351,0.03781583621194036,-0.5280666145097334,-0.894532689241628,-0.7864309096132811,-0.24717558319353927,-0.18981589767898696
sF2N,-0.04415233408052984,0.08369455356243628,-0.015893467335508598,0.023141501267625667,0.0410191415229857,-0.006024533741465351,-0.04470269630642792,0.0014441074209757352,0.0998957788429438,0.012244436739719389,-0.02330295278321876
sF2P,-0.1153532994704116,-0.20953712337266764,-0.14596863342033498,-0.21745852247399186,-0.18342537818261945,0.014504729479425734,-0.1687987198341817,-0.18562380445647828,-0.04212072990542194,-0.0037199279189356663,-0.13830460289956817
sF2Q,-0.06394285930991986,-0.00136245071683935,-0.00016055502918473812,-0.15289028692048368,-0.16179060661278405,-0.008578367588949814,-0.14072040328618687,-0.18450140785583238,-0.011044108399333343,0.017121904096244447,-0.07718485473887579
sF2R,-0.07072732909588576,-0.17555832461248938,-0.04637402096731759,-0.17714835987888597,-0.1581295103718058,0.11032616699117953,-0.1261454535938367,-0.19571579046393678,-0.21654998439896384,-0.08086373613123689,-0.2368122178314449
sF3B,0.1105022118924405,-0.13393446517679616,-0.194291927544836,0.11645778579206613,0.115715864767332,0.05058299278048581,0.1281780290112329,0.15485785214919606,0.11108867689950051,0.1076403269003663,0.1469310778480341
sF3K,-0.18390106654246832,-0.15417285551801607,0.008048895218884472,-0.3435391676520674,-0.40962271449203264,0.03179160319089406,-0.4084280610451231,-0.1838745411886984,0.047487741112051576,-0.12413308651684957,-0.11570589529880161
sF3N,-0.2642294566219376,-0.3918841900541628,-0.3615556589816739,-0.21390229875826486,-0.07994671332682926,0.07474792126758724,-0.10645953444486621,-0.3245247392563846,-0.3670703524161072,-0.38629557560448025,-0.2990872226950508
sF3P,-0.26565102305629856,0.19981207458071748,0.23867697087969325,-0.23456314200362535,-0.17811417103671984,-0.19371589511100262,-0.348363010208079,-0.34796362311477735,-0.049006386381798994,0.06944375889023321,-0.24876261138037148
sF3Q,0.08634379243929216,0.11266568754319845,0.21829821113963402,0.11933103761834271,0.13593331626762256,0.2037947333920348,0.13120816765839094,0.09555910419717624,0.372539208870748,0.321666601842686,0.1107410205593863
sF3R,-0.11005387267322894,0.14917051878739837,0.26274028035273833,0.12125365500618902,0.01504276797935136,0.10274625101422431,0.04634882890178373,-0.031057039388045323,0.15948981526793302,0.07265343230474515,-0.3896236521828664
sF4B,0.09421018850546514,-0.055615425419672626,0.0022483355869443718,0.040464325827162494,0.12453929596725853,-0.003152763834397483,0.08125180209314804,0.04697023817931024,0.14835035809006758,0.10142560381019297,0.10392084456237431
sF4K,0.00587779265897922,0.015297741994489241,0.2707242290847363,0.3307862146884746,-0.1267014581721174,0.011137715665591718,-0.16669826163585919,0.13247468671962076,0.3361962702889135,-0.017079901769996395,-0.036108210939811335
sF4N,-0.020191032576234537,0.01433723650224518,0.027182831600125204,-0.036586352126069324,-0.10597309117086566,0.12568343195062257,-0.008478990751046678,-0.07803070155734901,0.03240073841925981,0.14016709794417043,0.07273355380821565
sF4P,-0.261136764230706,-0.06855268876349871,-0.20523979911412066,-0.33747915737343653,-0.22920953826001508,-0.11643754101795876,-0.39849490733588255,-0.3508882201821978,-0.4800123152924036,-0.4042634566903973,-0.4609032644137092
sF4Q,-0.2670560918952093,-0.03757385047096352,-0.018121348266950908,-0.16570153980356536,-0.15075033404245433,0.030841118925722277,-0.32772385363468576,-0.22237781175178256,-0.13905112148157542,-0.028889708306157873,-0.004328051359296598
sF4R,-0.15658327846386688,0.045617696982185006,0.11322222816263662,-0.041615122409137464,-0.02754969257885736,0.04616750968858277,-0.04144291614697088,-0.051423387878008965,0.11939483328988838,0.07307165832096221,-0.02107264437170115
sF5B,0.012810421708344077,-0.017445384004530645,0.03287831907628852,-0.03582162238561069,-0.0746934532258826,-0.039220360856613706,-0.10000742460256146,0.04483826444483615,0.03499471229652121,0.0326346458038438,-0.10509951145660935
sF5K,0.5740485730435069,0.29026563219561197,0.6298258837114308,0.8422344681427842,0.4368732705287545,-0.2551845156710364,0.30479468563598894,0.8184208260100981,0.4452539506942443,0.41301831362592273,0.4781295252265357
sF5N,0.12084256082545711,0.13505485532408865,0.014453032776147123,0.10393054124278589,0.15061591367905855,0.1584557348902897,0.13975686989125963,0.11642433451218878,0.03622349714852144,0.1400321951288624,0.19960784809687787
sF5P,-0.30653418517261044,-0.09534626141973059,-0.2829378683413209,-0.3053385119408354,-0.207070534733805,0.022736184090245304,-0.26376442307325904,-0.32838706289890535,-0.3514657074684843,-0.1256502264214702,0.0774956553824204
sF5Q,-0.32099557146891255,-0.08537437613024887,0.007941566428967897,-0.2144330196775533,-0.17718535185982448,-0.026539160901860762,-0.2077903636973944,-0.18499095838082355,0.09315714660560148,-0.18719588535347942,-0.025369082327313684
sF5R,-0.025936789461073775,0.12114233419143768,0.07225174046716364,0.007712668615612542,0.06301258387346023,-0.036047658268023315,0.10336078751210906,0.13635428630490684,0.18226528792211139,0.10629664047327055,-0.01801632827731101
sF6B,-0.12484346173702018,-0.13268687442260488,-0.23646346042466881,-0.4078610060990719,-0.597793838362347,-0.45938420836592264,-0.6181666881772413,-0.17022110983753883,-0.08789092369202514,-0.3046079584537107,-0.3405802006449355
sF6K,0.34383094137154335,0.2799975739944052,0.5853983798025844,0.6738542089127535,0.2854716273813668,-0.11651410671128878,0.278571767690351,0.5750209142046769,0.4546446946777481,0.2471923197791953,0.19465349543617239
sF6N,-0.26283415502449636,-0.04626661974288984,-0.019266523737955434,-0.044625099469644325,-0.23220845087537845,0.34504399188916457,-0.09322245562963279,0.0043154828042296185,0.02494092723314945,-0.12459496851797092,-0.028127360393981227
sF6P,0.31237751218018,0.2280147409557867,0.38935136781685675,0.4800771162028009,0.21877119444206353,0.1873799605771494,0.49693227959079,0.5925624279997649,0.18134747508178045,0.2779642091101127,0.49721416312402517
sF6Q,-0.27187571712534875,-0.063656999944433,0.18409133369845568,0.1291560037404186,0.23330077033073848,0.350467099494557,0.4136336756575781,0.2095643317568649,0.09588894916848388,0.1110529219311456,-0.29682337608851656
sF6R,0.45008538544107424,0.21926871041364154,0.16092920550763343,0.16311125422560194,0.20694462392691668,-0.043655604687860526,0.23098773142925594,0.19999191892814908,0.17921123054042043,0.35671207935527904,0.3786077350475946
sF7B,-0.07348161475168474,-0.01983512660121783,-0.062200846343768816,0.03290846777904421,-0.06785987625619362,-0.015874480846373114,0.14513028568657974,-0.07580760247017723,-0.02508627239769863,-0.13296616331025776,-0.11076526022404068
sF7K,0.02136536419465991,0.06394899199907467,0.02789963707452918,0.1472754444819211,0.24124212818794805,0.04887923645602289,0.2582469880237721,0.21379706070015042,0.08982817523144247,0.017121004706833354,0.1005150940206901
sF7N,-0.04949925526455998,-0.05507053970380144,-0.027209764057594354,0.07698054959159185,0.10995079019452597,0.07243061443022768,0.24769906584131454,0.03585163756032471,-0.0760370006967696,-0.15741193279548926,-0.10583254539258988
sF7P,0.39825472064822603,0.286741552668011,0.30526904327617427,0.6058392983085611,0.5358749431080689,0.43421608456579874,0.6221612079178148,0.6717090719149134,0.5662783277577835,0.38394903858458196,0.59382046586071
sF7Q,0.14495696038125713,0.35127455212160985,0.3377403739613905,0.4541648786943632,0.4908578898182875,0.430601647143169,0.7724154328579966,0.5192621529531606,0.49498898014190806,0.29036537901150544,0.2634208878586221
sF7R,0.7091376027691406,0.4885864272402637,0.35023689937710717,0.6717904009128924,0.41877818785362514,0.016227285739591545,0.44712008604142894,0.4817432734422275,0.3671257859144923,0.4684884433350889,0.666742161098329
sF8B,-0.027612466443218655,-0.08937507842730064,-0.1507660286235947,-0.2821702044318314,-0.1949364405487145,-0.14761761513891472,-0.1918345507341865,-0.3102197042688227,-0.19344837968036105,-0.09290214432368742,-0.040022744127553286
sF8K,-0.03649114737492645,-0.002960680742296471,-0.045483118744679314,-0.005893782162683205,0.06707917986934726,-0.01034686518638125,0.057226395514209404,0.007884403767942848,-0.013940972608500937,-0.08495140914197342,-0.009783853220122981
sF8N,-0.0382226759615602,-0.042172570066722474,-0.12378549312509424,-0.13069693292018936,-0.0660516208945388,-0.01342832685681113,-0.17548620064811976,-0.10436543539795705,-0.06419151953834741,-0.07714968061654012,-0.03456675093945648
sF8Q,0.05109691668132756,0.2793005173916475,0.22365494263430377,0.33234311855928395,0.27539302962021006,0.21253926278127622,0.33877419534715825,0.40826452947373515,0.24671576306421997,0.22584203677161171,-0.09592569859827309
sF8R,-0.08326728565833545,-0.16628558178581393,-0.003253651249959735,0.08828366332537549,0.04070463707784238,0.15040281589772922,0.16241214748877764,0.0605917497821867,0.035572370884873125,-0.04457135018751751,0.03593287134431772
sG1B,-0.11948626663147519,0.03678982474970087,0.06525306512042381,-0.018436380312861093,-0.016070973623281356,-0.02222118637267173,0.054868178100384295,-0.0067150052371764335,0.0734955977335732,0.031088605517350005,-0.0025362779551625575
sG1K,0.6213045290562885,0.16244900263772707,-0.4149196512588978,0.03805460302065479,0.17037382305185786,0.015153485252504647,0.08654920076977582,0.03403462853872812,-0.4779763556682669,0.12477173022683279,0.7685308725850173
sG1N,-0.11283805069163713,0.21085686180031546,0.37439521993612407,0.22171585163631993,0.2755718192483967,-0.10050509465318788,0.3587857835527471,0.36924961235549286,0.7384492550063285,0.4708005442823483,0.3155021598730882
sG1Q,-0.10750079642252822,-0.060839207376615044,0.03241902994711195,0.09934005038337579,0.033329342376272095,0.026988799180633346,0.0783091487106347,0.03348097364926354,0.021899946493291036,0.10105665056991477,-0.04475003047523123
sG1R,0.20886536920392185,0.15877789379013416,0.13911615993300325,0.16121163829656854,0.3773932290012138,0.02710030476912917,0.2526170267033614,0.21686400753928398,0.056548442744185703,0.1134733730462989,0.009033062053601156
sG2B,0.379772255838515,-0.14391422199675655,0.15901719198385567,0.2367496767929694,0.3347708254976124,0.2877860511279048,0.464950437991208,0.4308119080002688,0.28307663168974123,0.02401350869758267,0.2482350550205592
sG2K,-0.1646748925961063,-0.08334593420533319,-0.5797295344918055,-0.6861853752509847,-0.3144377176230569,0.010192109403177562,-0.37066683362253033,-0.52800048583503,-0.4362924355056189,-0.024102648688687122,-0.08222946994100838
sG2N,0.0845830612374588,0.06523492288935473,-0.08322851363991801,0.0015352672725086548,0.15014181240220653,-0.031179488489382585,0.038919140600294645,0.11583617179664968,0.14750131122539192,-0.012598020674373914,0.04948915287349796
sG2P,-0.358472815250103,-0.15344827445752363,0.17158147920535552,-0.19066409216743993,-0.15219527562332527,-0.05457791083862207,-0.09337015272566555,-0.0879862955381263,0.20328469755195114,-0.04722688091290319,-0.06391629988675075
sG2Q,0.06699069758011975,0.03319309493943485,0.13376821484676937,0.1122695890416892,0.1384906711568474,0.08781850503728564,0.12196184018488206,0.1252914330421958,0.10464139796556311,-0.035690559335527124,-0.08135214825762947
sG2R,-0.0009619126082086015,-0.05714945083470774,-0.12869739867748498,-0.06561999849386974,0.016712898047755272,0.07477529147899771,-0.04182455029743649,0.024299204721309194,-0.0940472546026828,-0.09291272504246546,-0.1277990578119772
sG3B,0.23898802023352902,0.057103086520811405,-0.10433401579811818,0.13135736065704567,0.2622910795137123,0.23155697924540083,0.25230633586034745,0.11942279643312631,0.013140087988489708,0.028381296329499667,0.18690639214158106
sG3K,-0.4355909275217392,-0.41714887792790734,-0.3645267615158977,-0.7265344143229133,-0.6210103185880634,0.009283331313256737,-0.4246892837705462,-0.4945866681263408,-0.35218132632721405,-0.2284904449462629,-0.5742981254042095
sG3N,0.3483227834643058,0.2015397833701777,0.2648843189800209,0.20296740018492337,0.20054891351069198,0.03468384384693972,0.13256298170200873,0.20561942057887214,0.21068736080055156,0.17174178849152127,0.12022864637030974
sG3P,-0.01683581095667047,0.2425853686103131,0.184730602233501,-0.05785000211468273,0.01392966656398068,-0.08060025364504733,-0.1676257222648859,-0.10521041698644194,0.17156329450480282,0.141599392053263,-0.27641191870627735
sG3Q,-0.016993455990115633,0.17509665251937884,0.43180257548942697,0.45257716426303,0.4194394444877687,0.17946214640322,0.3881275040588899,0.43041221919357714,0.3988379355458202,0.25679216789307674,-0.013471505725756783
sG3R,-0.1515897721690965,0.09693181881467668,0.10784301499308066,0.051103398646097434,0.11845984577674945,0.16365941113415128,0.1491660045839264,0.06267871641210469,0.4110299026135116,0.1650384525280123,-0.07023942674778057
sG4B,0.06761426744033829,-0.033284470648624116,0.15563337406587333,-0.01647539641224898,-0.01577100941385421,-0.03948988084098312,0.13637572162992975,0.24407983584996792,0.084242997152914,0.29604163226661157,0.06838522117971024
sG4K,-0.3011576767377353,-0.2791842718471006,-0.25413095965671134,-0.21294616118339452,-0.22187390277963248,-0.0709148691523549,-0.0661410411067932,-0.028527095911639228,-0.10015481007149579,-0.0593122469907186,-0.26692691362619764
sG4N,-0.002219039638173206,0.1460817697240158,0.16387932208081785,0.23905703526971206,0.21484161589627543,0.09025971969297433,0.22545486657962213,0.20991196425178626,0.2530669431225579,0.1279913808789529,0.2862727894453024
sG4P,-0.5677084531923872,-0.35458108243558856,-0.2775924827474585,-0.3088006242713877,-0.25445291052449215,-0.16234895852695722,-0.2315303126637692,-0.41242340983740683,-0.2524913361524822,-0.2537566109450483,-0.35040099215847725
sG4Q,0.3305622402468767,0.1337250347276888,0.23426385973138486,0.3696469767874506,0.4318603153162254,0.14149763185959044,0.4577880854162193,0.39680415936270097,0.2534901866409336,0.11217716401691365,0.4420017869194747
sG4R,-0.017998884416355377,0.007542560876188068,0.21842773483241124,0.054467151948969006,0.07204405572180281,-0.023991974580364873,-0.06738956946968915,0.04358487053614912,0.2063363728629926,0.13405797748428472,-0.1273628488290615
sG5B,0.043324533734743945,0.1356715604390245,0.04990028447973448,0.08214303947337949,0.093679034850532,-0.12066692644196539,0.1617272640694128,0.2008508760858566,0.14501326283769336,-0.025848033752799773,0.11186284995644448
sG5K,0.1330358154446892,0.2237971224843969,0.3191879121584531,0.40280179654643905,0.1619130407239178,-0.14834781962381594,0.3041280602793159,0.7727484053435145,0.46765989312637585,0.34602795602047526,0.19526718478698296
sG5N,0.1597779955484533,0.12620628605705012,0.35430204677896965,0.3639534145154182,0.39440280001424877,-0.04524932091084353,0.3627901492794513,0.4454976987513486,0.3571967970765085,0.2348734492857586,0.1894472017787565
sG5P,-0.19747992934715933,-0.15757325824025048,-0.5419713574110758,-0.22858597050303966,-0.16393901040151007,-0.0027095515531312744,0.03424682794789899,-0.10804669381414339,-0.07944898247091338,-0.15253838647686252,-0.30714229550516725
sG5Q,-0.024322950621597107,0.007977248120390332,0.25432125972029884,0.21877690680724654,0.13021707822903594,0.05637701087365568,0.18388673150791102,0.2704295026610096,0.14947944445752975,0.07977663168422013,-0.2143058069709511
sG5R,0.036026799119532486,0.18227464950976946,0.1514090931938604,-0.052584222745421454,0.10235797307849295,0.026912772370976466,0.010965935358036739,0.1217580221383005,0.1319375754263994,0.12173452452676103,-0.04756166772703445
sG6B,0.07977467439762369,0.14562475492474447,0.11039885879123101,0.16607265767264937,0.16931660726697773,0.06358973415489266,0.2745713257027242,0.20049612341255432,0.13999590763135797,0.08937990215467044,0.04401132097346873
sG6K,0.23358090002178142,0.32002870126514044,0.4987826494666726,0.5791840812358734,0.48576670878787553,-0.06753911696009683,0.4791937535591977,0.5311346425807886,0.40381240899116494,0.2684130127077024,0.2825397014358625
sG6N,-0.13660540422043524,-0.11104955417366472,-0.1028311553633928,-0.043201259320607144,0.008193680212792534,0.1420221319497235,-0.04947286269729771,-0.20053855921786562,-0.020865422873132852,-0.10454709312348814,0.0630223545880399
sG6P,0.17560959774870763,0.21271836381280218,0.357393821238213,0.719201166735192,0.4704616794133492,0.10319389365882174,0.6436525350082278,0.6921759255158988,0.467295095220079,0.32253389092866147,0.42758004816431144
sG6Q,0.22607072419551663,0.26614301003833224,0.31544852038516447,0.2914151096779067,0.42138031610085536,0.36936296616117403,0.6852439049965524,0.5131226821718229,0.07065513892371918,0.13112064157445097,0.22154096763875433
sG6R,0.2283007360114994,0.26206653838550137,0.2275299610116191,0.08430456952549838,0.20315485280277631,0.026943487599406096,0.24904954390437625,0.2450070896938068,0.2297938260558729,0.2092076607320625,0.21218121327881814
sG7B,-0.14685145171770553,-0.11093073478632146,-0.12608791891988463,-0.23006498510727225,-0.15152731052613785,0.07716854332231272,-0.13993253873073117,-0.2540662701397511,-0.20459474514803522,-0.041164251664222475,0.02072451646792022
sG7K,0.10517564754727114,0.2029153352496777,0.11781864215468808,0.1449902536923387,0.2715132950825964,-0.04967300043060273,0.2798174163955575,0.1982698172439357,0.07960718916341468,0.12538970251947928,0.019070624452982875
sG7N,0.021552620870583742,0.003997610064175691,-0.039222986576334336,-0.025418307261297315,0.0695765474290471,-0.013189279987549516,0.01393918228596842,-0.0626669383281793,0.0037260191279949294,0.02728737220926348,-0.05786173614347555
sG7P,0.1940381705050238,0.14549278512327915,0.31443649570188187,0.3717529263359509,0.6117859481894512,0.3741959434737995,0.6505099298560503,0.5180151325681462,0.3600727284196564,0.2223610352553098,0.14389273996087246
sG7Q,-0.036648974564383124,0.057831523465136356,-0.059721631295915296,0.2575343593090436,0.31166079704330174,0.15550881027139427,0.39719691584365036,0.28627462098271517,0.1586920869450549,0.1109816090990165,0.0018099214520865925
sG7R,0.49364980784982154,0.5187550848841572,0.45673276154767967,0.4706609553719334,0.3983831960787749,0.07567744169999298,0.4817053848125822,0.5337812132608647,0.5261969797465056,0.49772432129031974,0.47892160099562153
sG8B,-0.06347531000082697,0.041619946437326014,0.07547788929079334,0.0509460144742785,0.01660822435966975,0.0855498585113045,0.06219101714722384,-0.022069834862115452,-0.04031596341939312,0.06467168942071898,-0.07045510461344094
sG8K,-0.07857759713841002,0.02568736792998006,-0.01170569923159138,-0.036922226037397726,0.05677989734537189,-0.040241421715063716,0.09653807710655883,0.026622773332527876,-0.04898095752282572,0.053479722002186904,0.00011013420225266472
sG8N,-0.018008728730834086,0.0025543742561189124,0.019004325126358634,-0.0076094827707238214,0.017677083178851662,0.007217244358985868,0.08006236788782285,0.025716453130416213,-0.05686534102950055,-0.041484859189619895,-0.06997677170789231
sG8Q,0.2107606581812559,0.2817877358605771,0.21203259784528036,0.18631127939127123,0.2787760760791561,0.18752933145353295,0.33983137389209256,0.5056986087812744,0.42647243023213893,0.38886676317893415,0.45479380258151336
sG8R,0.057092114195830726,0.07922467293208306,0.10273108415038257,0.08409882837563684,0.1843577357989791,0.17365137183762724,0.266315516777398,0.2276615152359949,0.16338724735950036,0.10235674437257249,0.1358526399232546
sH1B,0.19515112733886356,0.0736221309911107,0.0334104328567761,0.03874645582797491,0.16047807484094095,0.1044772913618375,0.024326608034762977,0.07443917434371172,0.06399529817252174,0.12938648645752446,0.01506071926250006
sH1K,0.19953257874972305,0.3034237189999812,0.6873456769302791,0.41194632436062667,-0.00024900961017428123,-0.1419474920997279,0.033786961877168085,0.37428955329268765,0.6736761409848632,0.29166987917832,0.38563325257049813
sH1N,-0.001171380171871398,-0.012117402751197586,0.028033878980041095,0.04090800910662568,-0.05797000416130939,-0.09822587904980196,-0.15417389975999737,0.029726887385103134,0.0507176630278028,0.03591889028937467,0.10314673360367138
sH1Q,-0.11251614335739944,0.009609928944599885,0.11888200085964566,0.10497567719833847,0.0494422477122153,-0.020523862964603675,0.13188555855729256,0.18219220395723953,0.13271541276765117,0.05949107780471955,-0.009055748381779008
sH1R,-0.09689379787797715,-0.3085240071482275,-0.5239394809690768,-0.1225140652591958,0.04815950300357276,-0.11454556706917726,-0.07594927074415772,-0.19274486112647765,-0.5348495090056702,-0.3085993618326745,-0.18278535960913692
sH2B,0.005056304817979935,-0.008275772856236024,0.1590214515642754,0.21198657150330039,0.16730141209033722,0.07947986397974191,0.15479468217552725,0.21859817240151094,0.09916140371313709,0.17339607439930635,0.11315872453564159
sH2K,-0.07313571424137763,0.061712728531203034,0.38690675968627086,0.06112620113588531,-0.08478889994046813,-0.045087335879118416,-0.07538471247268232,-0.04993738456789082,0.5741583306179651,0.23700268904750885,0.1607746601238923
sH2N,0.25250763358855444,0.19048069081170255,0.2981822567552247,0.37384504162000415,0.45744329437780007,-0.08174874958011416,0.36614789401246095,0.467981038061307,0.19744777096439364,0.05963656195107572,0.17547160819059154
sH2P,0.12895047049499936,0.06566349679765866,0.08780164393332843,-0.22801920054736505,-0.17044936200492772,-0.19517434904493622,-0.12608784030480505,-0.07832309609032556,0.3485370764935938,0.06890556064542469,-0.12105128131394097
sH2Q,0.036502875021941536,0.04484927546639118,0.07598287510477776,0.1725037904277173,0.19515401408319297,0.16975726521518975,0.12452245563334695,0.07944066128525427,0.11243571557655972,0.06142553870841784,0.08701851630001123
sH2R,-0.08365786247597944,0.025354802915897843,0.08437914884591234,-0.012612671396892714,-0.1267249722360083,-0.01130447414382189,-0.05666653682256436,0.09609101816088778,0.04223823673941735,-0.05751506491725326,0.004254287230312305
